<?xml version="1.0" ?>

<BIF VERSION="0.3">
<NETWORK>
<NAME>DAGs/very_large/pathfinder.bif</NAME>
<PROPERTY>software aGrUM</PROPERTY>

<!-- Variables -->
<VARIABLE TYPE="nature">
	<NAME>Fault</NAME>
	<PROPERTY></PROPERTY>
	<OUTCOME>AIDS_early</OUTCOME>
	<OUTCOME>AILD</OUTCOME>
	<OUTCOME>ALIP</OUTCOME>
	<OUTCOME>Cat_scratch_disease</OUTCOME>
	<OUTCOME>Dermatopathic_laden</OUTCOME>
	<OUTCOME>Florid_follic_hyperp</OUTCOME>
	<OUTCOME>GLH_hyaline_vacular</OUTCOME>
	<OUTCOME>GLH_plasma_cell_type</OUTCOME>
	<OUTCOME>Granulomatous_laden</OUTCOME>
	<OUTCOME>Histiocytosis_x</OUTCOME>
	<OUTCOME>Infectious_mono</OUTCOME>
	<OUTCOME>Leprosy</OUTCOME>
	<OUTCOME>Lymphangiographic</OUTCOME>
	<OUTCOME>Mantle_zone_hyperl</OUTCOME>
	<OUTCOME>Necrotizing_kikuchi</OUTCOME>
	<OUTCOME>Necrotiz_nonKikuchi</OUTCOME>
	<OUTCOME>Rheumatoid_arthritis</OUTCOME>
	<OUTCOME>Sarcoidosis</OUTCOME>
	<OUTCOME>SHML</OUTCOME>
	<OUTCOME>Sinus_hyperplasia</OUTCOME>
	<OUTCOME>Syphilis</OUTCOME>
	<OUTCOME>Toxoplasmosis</OUTCOME>
	<OUTCOME>Tuberculosis</OUTCOME>
	<OUTCOME>Viral_NOS</OUTCOME>
	<OUTCOME>Whipple_s_disease</OUTCOME>
	<OUTCOME>L_H_nodular_HD</OUTCOME>
	<OUTCOME>L_H_diffuse_HD</OUTCOME>
	<OUTCOME>Nodular_sclerosis</OUTCOME>
	<OUTCOME>Cellular_phase_NSHD</OUTCOME>
	<OUTCOME>Syncytial_NSHD</OUTCOME>
	<OUTCOME>Mixed_cellularity_HD</OUTCOME>
	<OUTCOME>Interfollicular_HD</OUTCOME>
	<OUTCOME>Diffuse_fibrosis_HD</OUTCOME>
	<OUTCOME>Reticular_type_HD</OUTCOME>
	<OUTCOME>Small_cleaved__fol</OUTCOME>
	<OUTCOME>Mixed__fol</OUTCOME>
	<OUTCOME>Large_cell__fol</OUTCOME>
	<OUTCOME>Small_noncleaved_fol</OUTCOME>
	<OUTCOME>Small_lymphocytic</OUTCOME>
	<OUTCOME>Plasmacytoid_lyctic</OUTCOME>
	<OUTCOME>Mantle_zone</OUTCOME>
	<OUTCOME>Small_cleaved__dif</OUTCOME>
	<OUTCOME>Mixed__fcc_dif</OUTCOME>
	<OUTCOME>Large_cell__dif</OUTCOME>
	<OUTCOME>B_immunoblastic</OUTCOME>
	<OUTCOME>T_immunob_mix</OUTCOME>
	<OUTCOME>IBL_like_T_cell_lym</OUTCOME>
	<OUTCOME>Japanese_ATL</OUTCOME>
	<OUTCOME>Lymphoblastic</OUTCOME>
	<OUTCOME>Small_noncleaved_dif</OUTCOME>
	<OUTCOME>True_histiocytic</OUTCOME>
	<OUTCOME>Malig_histiocytosis</OUTCOME>
	<OUTCOME>Multiple_myeloma</OUTCOME>
	<OUTCOME>Mycosis_fungoides</OUTCOME>
	<OUTCOME>AML</OUTCOME>
	<OUTCOME>Hairy_cell_leukemia</OUTCOME>
	<OUTCOME>Carcinoma</OUTCOME>
	<OUTCOME>Melanoma</OUTCOME>
	<OUTCOME>Em_plasmacytoma</OUTCOME>
	<OUTCOME>Kaposis_sarcoma</OUTCOME>
	<OUTCOME>Mast_cell_disease</OUTCOME>
	<OUTCOME>AIDS_involutionary</OUTCOME>
	<OUTCOME>T_immunob_lrg</OUTCOME>
</VARIABLE>

<VARIABLE TYPE="nature">
	<NAME>F1</NAME>
	<PROPERTY></PROPERTY>
	<OUTCOME>Absent</OUTCOME>
	<OUTCOME>Present</OUTCOME>
</VARIABLE>

<VARIABLE TYPE="nature">
	<NAME>F97</NAME>
	<PROPERTY></PROPERTY>
	<OUTCOME>Absent</OUTCOME>
	<OUTCOME>Present</OUTCOME>
</VARIABLE>

<VARIABLE TYPE="nature">
	<NAME>F2</NAME>
	<PROPERTY></PROPERTY>
	<OUTCOME>NA</OUTCOME>
	<OUTCOME>No</OUTCOME>
	<OUTCOME>Yes</OUTCOME>
</VARIABLE>

<VARIABLE TYPE="nature">
	<NAME>F78</NAME>
	<PROPERTY></PROPERTY>
	<OUTCOME>NA</OUTCOME>
	<OUTCOME>No</OUTCOME>
	<OUTCOME>Yes</OUTCOME>
</VARIABLE>

<VARIABLE TYPE="nature">
	<NAME>F3</NAME>
	<PROPERTY></PROPERTY>
	<OUTCOME>NA</OUTCOME>
	<OUTCOME>No</OUTCOME>
	<OUTCOME>Yes</OUTCOME>
</VARIABLE>

<VARIABLE TYPE="nature">
	<NAME>F4</NAME>
	<PROPERTY></PROPERTY>
	<OUTCOME>NA</OUTCOME>
	<OUTCOME>No</OUTCOME>
	<OUTCOME>Yes</OUTCOME>
</VARIABLE>

<VARIABLE TYPE="nature">
	<NAME>F5</NAME>
	<PROPERTY></PROPERTY>
	<OUTCOME>NA</OUTCOME>
	<OUTCOME>None</OUTCOME>
	<OUTCOME>One</OUTCOME>
	<OUTCOME>More_than_one</OUTCOME>
</VARIABLE>

<VARIABLE TYPE="nature">
	<NAME>F53</NAME>
	<PROPERTY></PROPERTY>
	<OUTCOME>Absent</OUTCOME>
	<OUTCOME>Focal__non_extensive_</OUTCOME>
	<OUTCOME>Multifocal__non_extensive_</OUTCOME>
	<OUTCOME>Extensive</OUTCOME>
</VARIABLE>

<VARIABLE TYPE="nature">
	<NAME>F6</NAME>
	<PROPERTY></PROPERTY>
	<OUTCOME>Absent</OUTCOME>
	<OUTCOME>Slight</OUTCOME>
	<OUTCOME>Moderate</OUTCOME>
	<OUTCOME>Marked</OUTCOME>
</VARIABLE>

<VARIABLE TYPE="nature">
	<NAME>F7</NAME>
	<PROPERTY></PROPERTY>
	<OUTCOME>Absent</OUTCOME>
	<OUTCOME>Rare</OUTCOME>
	<OUTCOME>Focal</OUTCOME>
	<OUTCOME>Multifocal</OUTCOME>
	<OUTCOME>Extensive</OUTCOME>
</VARIABLE>

<VARIABLE TYPE="nature">
	<NAME>F56</NAME>
	<PROPERTY></PROPERTY>
	<OUTCOME>Absent</OUTCOME>
	<OUTCOME>Focal__non_extensive_</OUTCOME>
	<OUTCOME>Multifocal__non_extensive_</OUTCOME>
	<OUTCOME>Extensive</OUTCOME>
</VARIABLE>

<VARIABLE TYPE="nature">
	<NAME>F8</NAME>
	<PROPERTY></PROPERTY>
	<OUTCOME>Absent_to_slight___5__</OUTCOME>
	<OUTCOME>Moderate__5_50__</OUTCOME>
	<OUTCOME>Marked___50__</OUTCOME>
</VARIABLE>

<VARIABLE TYPE="nature">
	<NAME>F9</NAME>
	<PROPERTY></PROPERTY>
	<OUTCOME>Absent</OUTCOME>
	<OUTCOME>Rare</OUTCOME>
	<OUTCOME>Focal_SS_pattern</OUTCOME>
	<OUTCOME>Multifocal_SS_pattern</OUTCOME>
	<OUTCOME>Extensive_SS_pattern</OUTCOME>
</VARIABLE>

<VARIABLE TYPE="nature">
	<NAME>F10</NAME>
	<PROPERTY></PROPERTY>
	<OUTCOME>Absent</OUTCOME>
	<OUTCOME>Present</OUTCOME>
</VARIABLE>

<VARIABLE TYPE="nature">
	<NAME>F55</NAME>
	<PROPERTY></PROPERTY>
	<OUTCOME>Absent</OUTCOME>
	<OUTCOME>Rare___3_</OUTCOME>
	<OUTCOME>Present__3_20_</OUTCOME>
	<OUTCOME>Many___20_</OUTCOME>
</VARIABLE>

<VARIABLE TYPE="nature">
	<NAME>F52</NAME>
	<PROPERTY></PROPERTY>
	<OUTCOME>Absent</OUTCOME>
	<OUTCOME>Rare___3_</OUTCOME>
	<OUTCOME>Present__3_20_</OUTCOME>
	<OUTCOME>Many___20_</OUTCOME>
</VARIABLE>

<VARIABLE TYPE="nature">
	<NAME>F11</NAME>
	<PROPERTY></PROPERTY>
	<OUTCOME>Absent</OUTCOME>
	<OUTCOME>Rare___3_</OUTCOME>
	<OUTCOME>Present__3_15_</OUTCOME>
	<OUTCOME>Many__16_50_</OUTCOME>
	<OUTCOME>Striking___50_</OUTCOME>
</VARIABLE>

<VARIABLE TYPE="nature">
	<NAME>F12</NAME>
	<PROPERTY></PROPERTY>
	<OUTCOME>Absent</OUTCOME>
	<OUTCOME>Present</OUTCOME>
</VARIABLE>

<VARIABLE TYPE="nature">
	<NAME>F13</NAME>
	<PROPERTY></PROPERTY>
	<OUTCOME>Absent</OUTCOME>
	<OUTCOME>Present__1_2_</OUTCOME>
	<OUTCOME>Prominent___2_</OUTCOME>
</VARIABLE>

<VARIABLE TYPE="nature">
	<NAME>F14</NAME>
	<PROPERTY></PROPERTY>
	<OUTCOME>Absent</OUTCOME>
	<OUTCOME>Present</OUTCOME>
</VARIABLE>

<VARIABLE TYPE="nature">
	<NAME>F15</NAME>
	<PROPERTY></PROPERTY>
	<OUTCOME>Absent</OUTCOME>
	<OUTCOME>Present</OUTCOME>
</VARIABLE>

<VARIABLE TYPE="nature">
	<NAME>F16</NAME>
	<PROPERTY></PROPERTY>
	<OUTCOME>Absent</OUTCOME>
	<OUTCOME>Present</OUTCOME>
	<OUTCOME>Prominent</OUTCOME>
</VARIABLE>

<VARIABLE TYPE="nature">
	<NAME>F17</NAME>
	<PROPERTY></PROPERTY>
	<OUTCOME>Absent</OUTCOME>
	<OUTCOME>Present___5__</OUTCOME>
	<OUTCOME>Prominent___5__</OUTCOME>
</VARIABLE>

<VARIABLE TYPE="nature">
	<NAME>F18</NAME>
	<PROPERTY></PROPERTY>
	<OUTCOME>NA</OUTCOME>
	<OUTCOME>No</OUTCOME>
	<OUTCOME>Some</OUTCOME>
	<OUTCOME>Many</OUTCOME>
</VARIABLE>

<VARIABLE TYPE="nature">
	<NAME>F19</NAME>
	<PROPERTY></PROPERTY>
	<OUTCOME>Absent</OUTCOME>
	<OUTCOME>Present___5__</OUTCOME>
	<OUTCOME>Prominent___5__</OUTCOME>
</VARIABLE>

<VARIABLE TYPE="nature">
	<NAME>F41</NAME>
	<PROPERTY></PROPERTY>
	<OUTCOME>Absent</OUTCOME>
	<OUTCOME>Present</OUTCOME>
</VARIABLE>

<VARIABLE TYPE="nature">
	<NAME>F44</NAME>
	<PROPERTY></PROPERTY>
	<OUTCOME>Absent</OUTCOME>
	<OUTCOME>Present</OUTCOME>
</VARIABLE>

<VARIABLE TYPE="nature">
	<NAME>F20</NAME>
	<PROPERTY></PROPERTY>
	<OUTCOME>Absent</OUTCOME>
	<OUTCOME>Rare__1_10__</OUTCOME>
	<OUTCOME>Present__11_50__</OUTCOME>
	<OUTCOME>Many__51_70__</OUTCOME>
</VARIABLE>

<VARIABLE TYPE="nature">
	<NAME>F90</NAME>
	<PROPERTY></PROPERTY>
	<OUTCOME>Absent</OUTCOME>
	<OUTCOME>Slight___10_</OUTCOME>
	<OUTCOME>Moderate__10_20_</OUTCOME>
	<OUTCOME>Marked___20_</OUTCOME>
</VARIABLE>

<VARIABLE TYPE="nature">
	<NAME>F21</NAME>
	<PROPERTY></PROPERTY>
	<OUTCOME>Absent</OUTCOME>
	<OUTCOME>Present</OUTCOME>
	<OUTCOME>Prominent</OUTCOME>
</VARIABLE>

<VARIABLE TYPE="nature">
	<NAME>F22</NAME>
	<PROPERTY></PROPERTY>
	<OUTCOME>NA</OUTCOME>
	<OUTCOME>Absent</OUTCOME>
	<OUTCOME>Present</OUTCOME>
</VARIABLE>

<VARIABLE TYPE="nature">
	<NAME>F23</NAME>
	<PROPERTY></PROPERTY>
	<OUTCOME>Absent</OUTCOME>
	<OUTCOME>Present</OUTCOME>
</VARIABLE>

<VARIABLE TYPE="nature">
	<NAME>F24</NAME>
	<PROPERTY></PROPERTY>
	<OUTCOME>Absent</OUTCOME>
	<OUTCOME>Present</OUTCOME>
</VARIABLE>

<VARIABLE TYPE="nature">
	<NAME>F25</NAME>
	<PROPERTY></PROPERTY>
	<OUTCOME>Absent</OUTCOME>
	<OUTCOME>Present__1_5_</OUTCOME>
	<OUTCOME>Prominent___5_</OUTCOME>
</VARIABLE>

<VARIABLE TYPE="nature">
	<NAME>F26</NAME>
	<PROPERTY></PROPERTY>
	<OUTCOME>Absent</OUTCOME>
	<OUTCOME>Present</OUTCOME>
</VARIABLE>

<VARIABLE TYPE="nature">
	<NAME>F27</NAME>
	<PROPERTY></PROPERTY>
	<OUTCOME>Absent</OUTCOME>
	<OUTCOME>Present</OUTCOME>
</VARIABLE>

<VARIABLE TYPE="nature">
	<NAME>F28</NAME>
	<PROPERTY></PROPERTY>
	<OUTCOME>Negative</OUTCOME>
	<OUTCOME>Positive</OUTCOME>
</VARIABLE>

<VARIABLE TYPE="nature">
	<NAME>F92</NAME>
	<PROPERTY></PROPERTY>
	<OUTCOME>Absent</OUTCOME>
	<OUTCOME>Present</OUTCOME>
</VARIABLE>

<VARIABLE TYPE="nature">
	<NAME>F29</NAME>
	<PROPERTY></PROPERTY>
	<OUTCOME>Negative</OUTCOME>
	<OUTCOME>Positive</OUTCOME>
</VARIABLE>

<VARIABLE TYPE="nature">
	<NAME>F98</NAME>
	<PROPERTY></PROPERTY>
	<OUTCOME>NA</OUTCOME>
	<OUTCOME>x1_25_</OUTCOME>
	<OUTCOME>x25_75_</OUTCOME>
	<OUTCOME>x75_90_</OUTCOME>
	<OUTCOME>x_90_</OUTCOME>
</VARIABLE>

<VARIABLE TYPE="nature">
	<NAME>F30</NAME>
	<PROPERTY></PROPERTY>
	<OUTCOME>NA</OUTCOME>
	<OUTCOME>No_expansion</OUTCOME>
	<OUTCOME>Sml__each___10__</OUTCOME>
	<OUTCOME>Large_focus_foci</OUTCOME>
	<OUTCOME>Uniform_mild_mod_exp</OUTCOME>
	<OUTCOME>Uniform_marked_exp</OUTCOME>
</VARIABLE>

<VARIABLE TYPE="nature">
	<NAME>F31</NAME>
	<PROPERTY></PROPERTY>
	<OUTCOME>Absent</OUTCOME>
	<OUTCOME>Present</OUTCOME>
</VARIABLE>

<VARIABLE TYPE="nature">
	<NAME>F32</NAME>
	<PROPERTY></PROPERTY>
	<OUTCOME>Absent</OUTCOME>
	<OUTCOME>Present</OUTCOME>
	<OUTCOME>Prominent</OUTCOME>
</VARIABLE>

<VARIABLE TYPE="nature">
	<NAME>F33</NAME>
	<PROPERTY></PROPERTY>
	<OUTCOME>Absent</OUTCOME>
	<OUTCOME>Rare___6_</OUTCOME>
	<OUTCOME>Few__6_25_</OUTCOME>
	<OUTCOME>Many__26_100_</OUTCOME>
	<OUTCOME>Striking___100_</OUTCOME>
</VARIABLE>

<VARIABLE TYPE="nature">
	<NAME>F34</NAME>
	<PROPERTY></PROPERTY>
	<OUTCOME>Absent</OUTCOME>
	<OUTCOME>Present</OUTCOME>
</VARIABLE>

<VARIABLE TYPE="nature">
	<NAME>F35</NAME>
	<PROPERTY></PROPERTY>
	<OUTCOME>Absent</OUTCOME>
	<OUTCOME>Rare___6_cells_</OUTCOME>
	<OUTCOME>Few__6_25_cells_</OUTCOME>
	<OUTCOME>Many__26___100_cells_</OUTCOME>
	<OUTCOME>Striking___100_cells_</OUTCOME>
	<OUTCOME>Sheets___50__of_sec_</OUTCOME>
</VARIABLE>

<VARIABLE TYPE="nature">
	<NAME>F36</NAME>
	<PROPERTY></PROPERTY>
	<OUTCOME>Absent</OUTCOME>
	<OUTCOME>Present__1_5_</OUTCOME>
	<OUTCOME>Prominent___5_</OUTCOME>
</VARIABLE>

<VARIABLE TYPE="nature">
	<NAME>F37</NAME>
	<PROPERTY></PROPERTY>
	<OUTCOME>Absent</OUTCOME>
	<OUTCOME>Present</OUTCOME>
</VARIABLE>

<VARIABLE TYPE="nature">
	<NAME>F84</NAME>
	<PROPERTY></PROPERTY>
	<OUTCOME>Absent</OUTCOME>
	<OUTCOME>Rare__1_10__</OUTCOME>
	<OUTCOME>Present__11_50__</OUTCOME>
	<OUTCOME>Many__51_70__</OUTCOME>
</VARIABLE>

<VARIABLE TYPE="nature">
	<NAME>F96</NAME>
	<PROPERTY></PROPERTY>
	<OUTCOME>NA</OUTCOME>
	<OUTCOME>Other</OUTCOME>
	<OUTCOME>LC</OUTCOME>
	<OUTCOME>LNC</OUTCOME>
</VARIABLE>

<VARIABLE TYPE="nature">
	<NAME>F38</NAME>
	<PROPERTY></PROPERTY>
	<OUTCOME>NA</OUTCOME>
	<OUTCOME>Clumped</OUTCOME>
	<OUTCOME>Vesicular</OUTCOME>
	<OUTCOME>Fine_and_delicate</OUTCOME>
	<OUTCOME>Cartwheel</OUTCOME>
</VARIABLE>

<VARIABLE TYPE="nature">
	<NAME>F39</NAME>
	<PROPERTY></PROPERTY>
	<OUTCOME>NA</OUTCOME>
	<OUTCOME>Scanty</OUTCOME>
	<OUTCOME>Mod_abund_clear</OUTCOME>
	<OUTCOME>Mod_abund_deep</OUTCOME>
</VARIABLE>

<VARIABLE TYPE="nature">
	<NAME>F40</NAME>
	<PROPERTY></PROPERTY>
	<OUTCOME>NA</OUTCOME>
	<OUTCOME>Round__most_</OUTCOME>
	<OUTCOME>Slightly_irregular__most_</OUTCOME>
	<OUTCOME>Irregular__most_</OUTCOME>
	<OUTCOME>Convoluted__some_</OUTCOME>
	<OUTCOME>Cerebriform__some_</OUTCOME>
	<OUTCOME>Multilobated__some_</OUTCOME>
	<OUTCOME>Mulberry__some_</OUTCOME>
</VARIABLE>

<VARIABLE TYPE="nature">
	<NAME>F42</NAME>
	<PROPERTY></PROPERTY>
	<OUTCOME>NA</OUTCOME>
	<OUTCOME>x_80__6_12u_pr_vr_ns</OUTCOME>
	<OUTCOME>x_80__6_12u_no_pr_vr_ns</OUTCOME>
	<OUTCOME>x_50__13_20u_nucleoli</OUTCOME>
	<OUTCOME>x_50__13_20u_no_nucleoli</OUTCOME>
	<OUTCOME>x_50___20u_nucleoli</OUTCOME>
	<OUTCOME>x_50___20u_no_nucleoli</OUTCOME>
	<OUTCOME>mixed__sml_cl_pr_var_ns</OUTCOME>
	<OUTCOME>mixed__sml_cl_not_pr_vr</OUTCOME>
</VARIABLE>

<VARIABLE TYPE="nature">
	<NAME>F43</NAME>
	<PROPERTY></PROPERTY>
	<OUTCOME>Absent</OUTCOME>
	<OUTCOME>Present__1_50_</OUTCOME>
	<OUTCOME>Prominent___50_</OUTCOME>
</VARIABLE>

<VARIABLE TYPE="nature">
	<NAME>F45</NAME>
	<PROPERTY></PROPERTY>
	<OUTCOME>Absent</OUTCOME>
	<OUTCOME>Present</OUTCOME>
</VARIABLE>

<VARIABLE TYPE="nature">
	<NAME>F46</NAME>
	<PROPERTY></PROPERTY>
	<OUTCOME>x0_5</OUTCOME>
	<OUTCOME>x6_15</OUTCOME>
	<OUTCOME>x16_50</OUTCOME>
	<OUTCOME>x_50</OUTCOME>
</VARIABLE>

<VARIABLE TYPE="nature">
	<NAME>F47</NAME>
	<PROPERTY></PROPERTY>
	<OUTCOME>NA</OUTCOME>
	<OUTCOME>Clumped</OUTCOME>
	<OUTCOME>Vesicular</OUTCOME>
	<OUTCOME>Fine_and_delicate</OUTCOME>
	<OUTCOME>Cartwheel</OUTCOME>
</VARIABLE>

<VARIABLE TYPE="nature">
	<NAME>F85</NAME>
	<PROPERTY></PROPERTY>
	<OUTCOME>Absent</OUTCOME>
	<OUTCOME>Rare__1_10__</OUTCOME>
	<OUTCOME>Present__11_50__</OUTCOME>
	<OUTCOME>Many__51_70__</OUTCOME>
</VARIABLE>

<VARIABLE TYPE="nature">
	<NAME>F48</NAME>
	<PROPERTY></PROPERTY>
	<OUTCOME>NA</OUTCOME>
	<OUTCOME>Scanty</OUTCOME>
	<OUTCOME>Mod_abund_clear</OUTCOME>
	<OUTCOME>Mod_abund_deep</OUTCOME>
</VARIABLE>

<VARIABLE TYPE="nature">
	<NAME>F49</NAME>
	<PROPERTY></PROPERTY>
	<OUTCOME>NA</OUTCOME>
	<OUTCOME>Round</OUTCOME>
	<OUTCOME>Slightly_irregular</OUTCOME>
	<OUTCOME>Irregular</OUTCOME>
	<OUTCOME>Convoluted</OUTCOME>
	<OUTCOME>Cerebriform</OUTCOME>
	<OUTCOME>Multilobulated</OUTCOME>
</VARIABLE>

<VARIABLE TYPE="nature">
	<NAME>F50</NAME>
	<PROPERTY></PROPERTY>
	<OUTCOME>NA</OUTCOME>
	<OUTCOME>No_nucleoli</OUTCOME>
	<OUTCOME>x1_small</OUTCOME>
	<OUTCOME>x1_prominent__central_</OUTCOME>
	<OUTCOME>x_1_central</OUTCOME>
	<OUTCOME>x_1_peripheral</OUTCOME>
</VARIABLE>

<VARIABLE TYPE="nature">
	<NAME>F51</NAME>
	<PROPERTY></PROPERTY>
	<OUTCOME>Absent</OUTCOME>
	<OUTCOME>Present___5__</OUTCOME>
	<OUTCOME>Prominent__5_50__</OUTCOME>
	<OUTCOME>Confluence___50__</OUTCOME>
</VARIABLE>

<VARIABLE TYPE="nature">
	<NAME>F83</NAME>
	<PROPERTY></PROPERTY>
	<OUTCOME>NA</OUTCOME>
	<OUTCOME>Sparse___10__</OUTCOME>
	<OUTCOME>Moderate__11_50__</OUTCOME>
	<OUTCOME>Numerous__51_90__</OUTCOME>
	<OUTCOME>Striking___90__</OUTCOME>
</VARIABLE>

<VARIABLE TYPE="nature">
	<NAME>F54</NAME>
	<PROPERTY></PROPERTY>
	<OUTCOME>Absent</OUTCOME>
	<OUTCOME>Focal__non_extensive_</OUTCOME>
	<OUTCOME>Multifocal__non_extensive_</OUTCOME>
	<OUTCOME>Extensive</OUTCOME>
</VARIABLE>

<VARIABLE TYPE="nature">
	<NAME>F57</NAME>
	<PROPERTY></PROPERTY>
	<OUTCOME>Absent</OUTCOME>
	<OUTCOME>Present</OUTCOME>
</VARIABLE>

<VARIABLE TYPE="nature">
	<NAME>F58</NAME>
	<PROPERTY></PROPERTY>
	<OUTCOME>Absent</OUTCOME>
	<OUTCOME>Present</OUTCOME>
	<OUTCOME>Prominent</OUTCOME>
</VARIABLE>

<VARIABLE TYPE="nature">
	<NAME>F59</NAME>
	<PROPERTY></PROPERTY>
	<OUTCOME>Absent</OUTCOME>
	<OUTCOME>Present</OUTCOME>
</VARIABLE>

<VARIABLE TYPE="nature">
	<NAME>F60</NAME>
	<PROPERTY></PROPERTY>
	<OUTCOME>Absent</OUTCOME>
	<OUTCOME>Present</OUTCOME>
	<OUTCOME>Prominent</OUTCOME>
</VARIABLE>

<VARIABLE TYPE="nature">
	<NAME>F61</NAME>
	<PROPERTY></PROPERTY>
	<OUTCOME>Absent</OUTCOME>
	<OUTCOME>Few___5__</OUTCOME>
	<OUTCOME>Moderate__6_20__</OUTCOME>
	<OUTCOME>Marked__21_50__</OUTCOME>
	<OUTCOME>Striking__51_90__</OUTCOME>
	<OUTCOME>Sheets___90__</OUTCOME>
</VARIABLE>

<VARIABLE TYPE="nature">
	<NAME>F62</NAME>
	<PROPERTY></PROPERTY>
	<OUTCOME>NA</OUTCOME>
	<OUTCOME>Mature</OUTCOME>
	<OUTCOME>Immature</OUTCOME>
	<OUTCOME>Blastic</OUTCOME>
	<OUTCOME>Pleomorphic</OUTCOME>
	<OUTCOME>Mixed</OUTCOME>
</VARIABLE>

<VARIABLE TYPE="nature">
	<NAME>F63</NAME>
	<PROPERTY></PROPERTY>
	<OUTCOME>Absent</OUTCOME>
	<OUTCOME>Rare___6_</OUTCOME>
	<OUTCOME>Few__6_25_</OUTCOME>
	<OUTCOME>Many__26_100_</OUTCOME>
	<OUTCOME>Striking___100_</OUTCOME>
</VARIABLE>

<VARIABLE TYPE="nature">
	<NAME>F64</NAME>
	<PROPERTY></PROPERTY>
	<OUTCOME>Absent</OUTCOME>
	<OUTCOME>Present</OUTCOME>
</VARIABLE>

<VARIABLE TYPE="nature">
	<NAME>F65</NAME>
	<PROPERTY></PROPERTY>
	<OUTCOME>Absent</OUTCOME>
	<OUTCOME>Present</OUTCOME>
</VARIABLE>

<VARIABLE TYPE="nature">
	<NAME>F66</NAME>
	<PROPERTY></PROPERTY>
	<OUTCOME>Absent</OUTCOME>
	<OUTCOME>Present</OUTCOME>
</VARIABLE>

<VARIABLE TYPE="nature">
	<NAME>F67</NAME>
	<PROPERTY></PROPERTY>
	<OUTCOME>Absent</OUTCOME>
	<OUTCOME>Present</OUTCOME>
</VARIABLE>

<VARIABLE TYPE="nature">
	<NAME>F68</NAME>
	<PROPERTY></PROPERTY>
	<OUTCOME>Absent</OUTCOME>
	<OUTCOME>Present</OUTCOME>
</VARIABLE>

<VARIABLE TYPE="nature">
	<NAME>F69</NAME>
	<PROPERTY></PROPERTY>
	<OUTCOME>Absent</OUTCOME>
	<OUTCOME>Present</OUTCOME>
</VARIABLE>

<VARIABLE TYPE="nature">
	<NAME>F72</NAME>
	<PROPERTY></PROPERTY>
	<OUTCOME>Absent</OUTCOME>
	<OUTCOME>Present</OUTCOME>
</VARIABLE>

<VARIABLE TYPE="nature">
	<NAME>F86</NAME>
	<PROPERTY></PROPERTY>
	<OUTCOME>Absent</OUTCOME>
	<OUTCOME>Rare__1_10__</OUTCOME>
	<OUTCOME>Present__11_50__</OUTCOME>
	<OUTCOME>Many__51_70__</OUTCOME>
</VARIABLE>

<VARIABLE TYPE="nature">
	<NAME>F70</NAME>
	<PROPERTY></PROPERTY>
	<OUTCOME>NA</OUTCOME>
	<OUTCOME>Scanty</OUTCOME>
	<OUTCOME>Mod_abund_clear</OUTCOME>
	<OUTCOME>Mod_abund_deep</OUTCOME>
</VARIABLE>

<VARIABLE TYPE="nature">
	<NAME>F71</NAME>
	<PROPERTY></PROPERTY>
	<OUTCOME>NA</OUTCOME>
	<OUTCOME>Round</OUTCOME>
	<OUTCOME>Slightly_irregular</OUTCOME>
	<OUTCOME>Irregular</OUTCOME>
	<OUTCOME>Markedly_irregular</OUTCOME>
	<OUTCOME>Convoluted</OUTCOME>
	<OUTCOME>Cerebriform</OUTCOME>
	<OUTCOME>Multilobulated</OUTCOME>
</VARIABLE>

<VARIABLE TYPE="nature">
	<NAME>F73</NAME>
	<PROPERTY></PROPERTY>
	<OUTCOME>Absent</OUTCOME>
	<OUTCOME>Rare___6_</OUTCOME>
	<OUTCOME>Few__6_25_</OUTCOME>
	<OUTCOME>Many__26_100_</OUTCOME>
	<OUTCOME>Striking___100_</OUTCOME>
</VARIABLE>

<VARIABLE TYPE="nature">
	<NAME>F74</NAME>
	<PROPERTY></PROPERTY>
	<OUTCOME>Distended</OUTCOME>
	<OUTCOME>Patent</OUTCOME>
	<OUTCOME>Part_greatly_obliterated</OUTCOME>
	<OUTCOME>Completely_obliterated</OUTCOME>
</VARIABLE>

<VARIABLE TYPE="nature">
	<NAME>F75</NAME>
	<PROPERTY></PROPERTY>
	<OUTCOME>No</OUTCOME>
	<OUTCOME>Yes</OUTCOME>
</VARIABLE>

<VARIABLE TYPE="nature">
	<NAME>F76</NAME>
	<PROPERTY></PROPERTY>
	<OUTCOME>Absent</OUTCOME>
	<OUTCOME>Slight</OUTCOME>
	<OUTCOME>Moderate</OUTCOME>
	<OUTCOME>Marked</OUTCOME>
	<OUTCOME>Pronounced</OUTCOME>
</VARIABLE>

<VARIABLE TYPE="nature">
	<NAME>F77</NAME>
	<PROPERTY></PROPERTY>
	<OUTCOME>Absent</OUTCOME>
	<OUTCOME>Present</OUTCOME>
</VARIABLE>

<VARIABLE TYPE="nature">
	<NAME>F79</NAME>
	<PROPERTY></PROPERTY>
	<OUTCOME>Absent</OUTCOME>
	<OUTCOME>Present</OUTCOME>
	<OUTCOME>Prominent</OUTCOME>
</VARIABLE>

<VARIABLE TYPE="nature">
	<NAME>F80</NAME>
	<PROPERTY></PROPERTY>
	<OUTCOME>Absent</OUTCOME>
	<OUTCOME>Present</OUTCOME>
</VARIABLE>

<VARIABLE TYPE="nature">
	<NAME>F81</NAME>
	<PROPERTY></PROPERTY>
	<OUTCOME>NA</OUTCOME>
	<OUTCOME>Sparse__1_10__</OUTCOME>
	<OUTCOME>Moderate__11_50__</OUTCOME>
	<OUTCOME>Numerous__51_90__</OUTCOME>
	<OUTCOME>Striking___90__</OUTCOME>
</VARIABLE>

<VARIABLE TYPE="nature">
	<NAME>F82</NAME>
	<PROPERTY></PROPERTY>
	<OUTCOME>NA</OUTCOME>
	<OUTCOME>Sparse___10__</OUTCOME>
	<OUTCOME>Moderate__11_50__</OUTCOME>
	<OUTCOME>Numerous__51_90__</OUTCOME>
	<OUTCOME>Striking___90__</OUTCOME>
</VARIABLE>

<VARIABLE TYPE="nature">
	<NAME>F87</NAME>
	<PROPERTY></PROPERTY>
	<OUTCOME>Absent</OUTCOME>
	<OUTCOME>Present</OUTCOME>
</VARIABLE>

<VARIABLE TYPE="nature">
	<NAME>F88</NAME>
	<PROPERTY></PROPERTY>
	<OUTCOME>Absent</OUTCOME>
	<OUTCOME>Present</OUTCOME>
</VARIABLE>

<VARIABLE TYPE="nature">
	<NAME>F89</NAME>
	<PROPERTY></PROPERTY>
	<OUTCOME>Absent</OUTCOME>
	<OUTCOME>Present</OUTCOME>
</VARIABLE>

<VARIABLE TYPE="nature">
	<NAME>F91</NAME>
	<PROPERTY></PROPERTY>
	<OUTCOME>Absent</OUTCOME>
	<OUTCOME>Present</OUTCOME>
</VARIABLE>

<VARIABLE TYPE="nature">
	<NAME>F93</NAME>
	<PROPERTY></PROPERTY>
	<OUTCOME>No</OUTCOME>
	<OUTCOME>Yes</OUTCOME>
</VARIABLE>

<VARIABLE TYPE="nature">
	<NAME>F94</NAME>
	<PROPERTY></PROPERTY>
	<OUTCOME>NA</OUTCOME>
	<OUTCOME>No_nucleoli</OUTCOME>
	<OUTCOME>x1_small</OUTCOME>
	<OUTCOME>x1_prominent__central_</OUTCOME>
	<OUTCOME>x_1_central</OUTCOME>
	<OUTCOME>x_1_peripheral</OUTCOME>
</VARIABLE>

<VARIABLE TYPE="nature">
	<NAME>F95</NAME>
	<PROPERTY></PROPERTY>
	<OUTCOME>NA</OUTCOME>
	<OUTCOME>Clumped</OUTCOME>
	<OUTCOME>Vesicular</OUTCOME>
	<OUTCOME>Fine_and_delicate</OUTCOME>
	<OUTCOME>Plasmacytoid</OUTCOME>
</VARIABLE>

<VARIABLE TYPE="nature">
	<NAME>F99</NAME>
	<PROPERTY></PROPERTY>
	<OUTCOME>NA</OUTCOME>
	<OUTCOME>Back_to_back</OUTCOME>
	<OUTCOME>Closely_packed</OUTCOME>
	<OUTCOME>Separated</OUTCOME>
	<OUTCOME>Far_apart</OUTCOME>
</VARIABLE>

<VARIABLE TYPE="nature">
	<NAME>F100</NAME>
	<PROPERTY></PROPERTY>
	<OUTCOME>NA</OUTCOME>
	<OUTCOME>Absent</OUTCOME>
	<OUTCOME>Slight__1_15_</OUTCOME>
	<OUTCOME>Moderate__16_30_</OUTCOME>
	<OUTCOME>Marked___30_</OUTCOME>
</VARIABLE>

<VARIABLE TYPE="nature">
	<NAME>F105</NAME>
	<PROPERTY></PROPERTY>
	<OUTCOME>NA</OUTCOME>
	<OUTCOME>Absent</OUTCOME>
	<OUTCOME>Present</OUTCOME>
</VARIABLE>

<VARIABLE TYPE="nature">
	<NAME>F101</NAME>
	<PROPERTY></PROPERTY>
	<OUTCOME>NA</OUTCOME>
	<OUTCOME>Some_fusion</OUTCOME>
	<OUTCOME>Form__4_nod_in_4sqcm</OUTCOME>
	<OUTCOME>Form_1_4_nod_in_4sqcm</OUTCOME>
	<OUTCOME>Most_thick___10_cells_</OUTCOME>
	<OUTCOME>Most_completely_encircle</OUTCOME>
	<OUTCOME>Most_partially_encircle</OUTCOME>
	<OUTCOME>Most_absent</OUTCOME>
</VARIABLE>

<VARIABLE TYPE="nature">
	<NAME>F102</NAME>
	<PROPERTY></PROPERTY>
	<OUTCOME>NA</OUTCOME>
	<OUTCOME>Absent</OUTCOME>
	<OUTCOME>Present</OUTCOME>
</VARIABLE>

<VARIABLE TYPE="nature">
	<NAME>F103</NAME>
	<PROPERTY></PROPERTY>
	<OUTCOME>NA</OUTCOME>
	<OUTCOME>Almost_all_well_def</OUTCOME>
	<OUTCOME>Both_well_and_poor_def</OUTCOME>
	<OUTCOME>Almost_all_poor_def</OUTCOME>
</VARIABLE>

<VARIABLE TYPE="nature">
	<NAME>F104</NAME>
	<PROPERTY></PROPERTY>
	<OUTCOME>NA</OUTCOME>
	<OUTCOME>x0_20</OUTCOME>
	<OUTCOME>x21_50</OUTCOME>
	<OUTCOME>x_50</OUTCOME>
</VARIABLE>

<VARIABLE TYPE="nature">
	<NAME>F106</NAME>
	<PROPERTY></PROPERTY>
	<OUTCOME>NA</OUTCOME>
	<OUTCOME>Yes</OUTCOME>
	<OUTCOME>Some_similar</OUTCOME>
	<OUTCOME>None_similar</OUTCOME>
</VARIABLE>

<VARIABLE TYPE="nature">
	<NAME>F107</NAME>
	<PROPERTY></PROPERTY>
	<OUTCOME>NA</OUTCOME>
	<OUTCOME>No</OUTCOME>
	<OUTCOME>Yes</OUTCOME>
</VARIABLE>

<VARIABLE TYPE="nature">
	<NAME>F108</NAME>
	<PROPERTY></PROPERTY>
	<OUTCOME>Absent</OUTCOME>
	<OUTCOME>Present</OUTCOME>
</VARIABLE>

<!-- Probability distributions -->
<DEFINITION>
	<FOR>Fault</FOR>
	<TABLE>
		0.0207512 0.00103756 0.0103756 0.00363146 0.0103756 0.0311268 0.00435775 0.00207512 0.0155634 0.00415024 0.00726292 0.00622536 0.0103756 0.0129695 0.00830048 0.0132808 0.00207512 0.00207512 0.00124507 0.0155634 0.0025939 0.00726292 0.00830048 0.0103756 0.00207512 0.0103756 0.00415024 0.0830048 0.0051878 0.00415024 0.051878 0.00415024 0.0051878 0.0051878 0.103756 0.0570658 0.0311268 0.0051878 0.0207512 0.0103756 0.0103756 0.00415024 0.0103756 0.134883 0.0155634 0.0207512 0.0155634 0.00103756 0.0103756 0.0622536 0.0016601 0.0016601 0.00207512 0.00622536 0.0025939 0.00020751 0.0207512 0.00830048 0.00332019 0.00830048 0.00311268 0.0207512 0.0207512
	</TABLE>
</DEFINITION>
<DEFINITION>
	<FOR>F1</FOR>
	<GIVEN>Fault</GIVEN>
	<TABLE>
		1 0
		1 0
		1 0
		1 0
		1 0
		1 0
		1 0
		1 0
		1 0
		1 0
		1 0
		1 0
		1 0
		1 0
		1 0
		1 0
		1 0
		1 0
		1 0
		1 0
		1 0
		1 0
		0.1 0.9
		1 0
		1 0
		1 0
		1 0
		1 0
		1 0
		1 0
		1 0
		1 0
		1 0
		1 0
		1 0
		1 0
		1 0
		1 0
		1 0
		1 0
		1 0
		1 0
		1 0
		1 0
		1 0
		1 0
		1 0
		1 0
		1 0
		1 0
		1 0
		1 0
		1 0
		1 0
		1 0
		1 0
		1 0
		1 0
		1 0
		1 0
		1 0
		1 0
		1 0
	</TABLE>
</DEFINITION>
<DEFINITION>
	<FOR>F97</FOR>
	<GIVEN>Fault</GIVEN>
	<TABLE>
		0 1
		0.99 0.01
		0.9 0.1
		0.01 0.99
		0.01 0.99
		0 1
		0 1
		0 1
		0.01 0.99
		0.01 0.99
		0.01 0.99
		0.9 0.1
		0.01 0.99
		0 1
		0.01 0.99
		0.01 0.99
		0 1
		0.9 0.1
		0.01 0.99
		0.01 0.99
		0 1
		0 1
		0.9 0.1
		0.01 0.99
		0.01 0.99
		0.99 0.01
		0.99 0.01
		0.8 0.2
		0.8 0.2
		0.8 0.2
		0.8 0.2
		0 1
		0.999 0.001
		0.999 0.001
		0 1
		0 1
		0 1
		0 1
		0.95 0.05
		0.999 0.001
		0.01 0.99
		0.999 0.001
		0.999 0.001
		0.999 0.001
		0.999 0.001
		0.8 0.2
		0.999 0.001
		0.999 0.001
		0.95 0.05
		0.999 0.001
		0.999 0.001
		0.999 0.001
		0.2 0.8
		0.2 0.8
		0.2 0.8
		0.2 0.8
		0.2 0.8
		0.2 0.8
		0.99 0.01
		0.99 0.01
		0.99 0.01
		0.05 0.95
		0.999 0.001
	</TABLE>
</DEFINITION>
<DEFINITION>
	<FOR>F2</FOR>
	<GIVEN>Fault</GIVEN>
	<GIVEN>F97</GIVEN>
	<TABLE>
		1 0 0
		0 0.99 0.01
		1 0 0
		0 0.3 0.7
		1 0 0
		0 0.99 0.01
		1 0 0
		0 0.99 0.01
		1 0 0
		0 0.99 0.01
		1 0 0
		0 0.99 0.01
		1 0 0
		0 0 1
		1 0 0
		0 0.99 0.01
		1 0 0
		0 0.99 0.01
		1 0 0
		0 0.99 0.01
		1 0 0
		0 0.99 0.01
		1 0 0
		0 0.99 0.01
		1 0 0
		0 0.99 0.01
		1 0 0
		0 0.05 0.95
		1 0 0
		0 0.99 0.01
		1 0 0
		0 0.99 0.01
		1 0 0
		0 0.99 0.01
		1 0 0
		0 0.99 0.01
		1 0 0
		0 0.99 0.01
		1 0 0
		0 0.99 0.01
		1 0 0
		0 0.99 0.01
		1 0 0
		0 0.99 0.01
		1 0 0
		0 0.99 0.01
		1 0 0
		0 0.99 0.01
		1 0 0
		0 0.99 0.01
		1 0 0
		0 0.99 0.01
		1 0 0
		0 0.99 0.01
		1 0 0
		0 0.99 0.01
		1 0 0
		0 0.99 0.01
		1 0 0
		0 0.99 0.01
		1 0 0
		0 0.99 0.01
		1 0 0
		0 0.99 0.01
		1 0 0
		0 0.99 0.01
		1 0 0
		0 0.99 0.01
		1 0 0
		0 0.99999 1e-05
		1 0 0
		0 0.99999 1e-05
		1 0 0
		0 0.99999 1e-05
		1 0 0
		0 0.99999 1e-05
		1 0 0
		0 0.99 0.01
		1 0 0
		0 0.99 0.01
		1 0 0
		0 0.01 0.99
		1 0 0
		0 0.99 0.01
		1 0 0
		0 0.99 0.01
		1 0 0
		0 0.99 0.01
		1 0 0
		0 0.99 0.01
		1 0 0
		0 0.99 0.01
		1 0 0
		0 0.3 0.7
		1 0 0
		0 0.99 0.01
		1 0 0
		0 0.99 0.01
		1 0 0
		0 0.99 0.01
		1 0 0
		0 0.99 0.01
		1 0 0
		0 0.99 0.01
		1 0 0
		0 0.99 0.01
		1 0 0
		0 0.99 0.01
		1 0 0
		0 0.99 0.01
		1 0 0
		0 0.99 0.01
		1 0 0
		0 0.99 0.01
		1 0 0
		0 0.99 0.01
		1 0 0
		0 0.99 0.01
		1 0 0
		0 0.01 0.99
		1 0 0
		0 0.99 0.01
		1 0 0
		0 0.01 0.99
		1 0 0
		0 0.99 0.01
	</TABLE>
</DEFINITION>
<DEFINITION>
	<FOR>F78</FOR>
	<GIVEN>Fault</GIVEN>
	<GIVEN>F97</GIVEN>
	<TABLE>
		1 0 0
		0 0.65 0.35
		1 0 0
		0 0.999 0.001
		1 0 0
		0 0.999 0.001
		1 0 0
		0 0.999 0.001
		1 0 0
		0 0.999 0.001
		1 0 0
		0 0.98 0.02
		1 0 0
		0 0.999 0.001
		1 0 0
		0 0.999 0.001
		1 0 0
		0 0.999 0.001
		1 0 0
		0 0.999 0.001
		1 0 0
		0 0.999 0.001
		1 0 0
		0 0.999 0.001
		1 0 0
		0 0.999 0.001
		1 0 0
		0 0.999 0.001
		1 0 0
		0 0.999 0.001
		1 0 0
		0 0.999 0.001
		1 0 0
		0 0.999 0.001
		1 0 0
		0 0.999 0.001
		1 0 0
		0 0.999 0.001
		1 0 0
		0 0.999 0.001
		1 0 0
		0 0.999 0.001
		1 0 0
		0 0.999 0.001
		1 0 0
		0 0.999 0.001
		1 0 0
		0 0.999 0.001
		1 0 0
		0 0.999 0.001
		1 0 0
		0 0.999 0.001
		1 0 0
		0 0.999 0.001
		1 0 0
		0 0.999 0.001
		1 0 0
		0 0.999 0.001
		1 0 0
		0 0.999 0.001
		1 0 0
		0 0.999 0.001
		1 0 0
		0 0.999 0.001
		1 0 0
		0 0.999 0.001
		1 0 0
		0 0.999 0.001
		1 0 0
		0 0.999 0.001
		1 0 0
		0 0.999 0.001
		1 0 0
		0 0.999 0.001
		1 0 0
		0 0.999 0.001
		1 0 0
		0 0.999 0.001
		1 0 0
		0 0.999 0.001
		1 0 0
		0 0.999 0.001
		1 0 0
		0 0.999 0.001
		1 0 0
		0 0.999 0.001
		1 0 0
		0 0.999 0.001
		1 0 0
		0 0.999 0.001
		1 0 0
		0 0.999 0.001
		1 0 0
		0 0.999 0.001
		1 0 0
		0 0.999 0.001
		1 0 0
		0 0.999 0.001
		1 0 0
		0 0.999 0.001
		1 0 0
		0 0.999 0.001
		1 0 0
		0 0.999 0.001
		1 0 0
		0 0.999 0.001
		1 0 0
		0 0.999 0.001
		1 0 0
		0 0.999 0.001
		1 0 0
		0 0.999 0.001
		1 0 0
		0 0.999 0.001
		1 0 0
		0 0.999 0.001
		1 0 0
		0 0.999 0.001
		1 0 0
		0 0.999 0.001
		1 0 0
		0 0.999 0.001
		1 0 0
		0 0.9 0.1
		1 0 0
		0 0.999 0.001
	</TABLE>
</DEFINITION>
<DEFINITION>
	<FOR>F3</FOR>
	<GIVEN>Fault</GIVEN>
	<GIVEN>F97</GIVEN>
	<GIVEN>F78</GIVEN>
	<TABLE>
		1 0 0
		1 0 0
		1 0 0
		1 0 0
		0 0.8 0.2
		0 0.7 0.3
		1 0 0
		1 0 0
		1 0 0
		1 0 0
		0 0.9999 9.999e-05
		0 0.9999 9.999e-05
		1 0 0
		1 0 0
		1 0 0
		1 0 0
		0 0.9999 9.999e-05
		0 0.9999 9.999e-05
		1 0 0
		1 0 0
		1 0 0
		1 0 0
		0 0.9999 9.999e-05
		0 0.9999 9.999e-05
		1 0 0
		1 0 0
		1 0 0
		1 0 0
		0 0.9999 9.999e-05
		0 0.9999 9.999e-05
		1 0 0
		1 0 0
		1 0 0
		1 0 0
		0 0.95 0.05
		0 0.9 0.1
		1 0 0
		1 0 0
		1 0 0
		1 0 0
		0 0.9999 9.999e-05
		0 0.9999 9.999e-05
		1 0 0
		1 0 0
		1 0 0
		1 0 0
		0 0.9999 9.999e-05
		0 0.9999 9.999e-05
		1 0 0
		1 0 0
		1 0 0
		1 0 0
		0 0.9999 9.999e-05
		0 0.9999 9.999e-05
		1 0 0
		1 0 0
		1 0 0
		1 0 0
		0 0.9999 9.999e-05
		0 0.9999 9.999e-05
		1 0 0
		1 0 0
		1 0 0
		1 0 0
		0 0.9999 9.999e-05
		0 0.9999 9.999e-05
		1 0 0
		1 0 0
		1 0 0
		1 0 0
		0 0.9999 9.999e-05
		0 0.9999 9.999e-05
		1 0 0
		1 0 0
		1 0 0
		1 0 0
		0 0.9999 9.999e-05
		0 0.9999 9.999e-05
		1 0 0
		1 0 0
		1 0 0
		1 0 0
		0 0.9999 9.999e-05
		0 0.9999 9.999e-05
		1 0 0
		1 0 0
		1 0 0
		1 0 0
		0 0.9999 9.999e-05
		0 0.9999 9.999e-05
		1 0 0
		1 0 0
		1 0 0
		1 0 0
		0 0.9999 9.999e-05
		0 0.9999 9.999e-05
		1 0 0
		1 0 0
		1 0 0
		1 0 0
		0 0.9999 9.999e-05
		0 0.9999 9.999e-05
		1 0 0
		1 0 0
		1 0 0
		1 0 0
		0 0.9999 9.999e-05
		0 0.9999 9.999e-05
		1 0 0
		1 0 0
		1 0 0
		1 0 0
		0 0.9999 9.999e-05
		0 0.9999 9.999e-05
		1 0 0
		1 0 0
		1 0 0
		1 0 0
		0 0.9999 9.999e-05
		0 0.9999 9.999e-05
		1 0 0
		1 0 0
		1 0 0
		1 0 0
		0 0.9999 9.999e-05
		0 0.9999 9.999e-05
		1 0 0
		1 0 0
		1 0 0
		1 0 0
		0 0.9999 9.999e-05
		0 0.9999 9.999e-05
		1 0 0
		1 0 0
		1 0 0
		1 0 0
		0 0.9999 9.999e-05
		0 0.9999 9.999e-05
		1 0 0
		1 0 0
		1 0 0
		1 0 0
		0 0.9999 9.999e-05
		0 0.9999 9.999e-05
		1 0 0
		1 0 0
		1 0 0
		1 0 0
		0 0.9999 9.999e-05
		0 0.9999 9.999e-05
		1 0 0
		1 0 0
		1 0 0
		1 0 0
		0 0.9999 9.999e-05
		0 0.9999 9.999e-05
		1 0 0
		1 0 0
		1 0 0
		1 0 0
		0 0.9999 9.999e-05
		0 0.9999 9.999e-05
		1 0 0
		1 0 0
		1 0 0
		1 0 0
		0 0.9999 9.999e-05
		0 0.9999 9.999e-05
		1 0 0
		1 0 0
		1 0 0
		1 0 0
		0 0.9999 9.999e-05
		0 0.9999 9.999e-05
		1 0 0
		1 0 0
		1 0 0
		1 0 0
		0 0.9999 9.999e-05
		0 0.9999 9.999e-05
		1 0 0
		1 0 0
		1 0 0
		1 0 0
		0 0.9999 9.999e-05
		0 0.9999 9.999e-05
		1 0 0
		1 0 0
		1 0 0
		1 0 0
		0 0.9999 9.999e-05
		0 0.9999 9.999e-05
		1 0 0
		1 0 0
		1 0 0
		1 0 0
		0 0.9999 9.999e-05
		0 0.9999 9.999e-05
		1 0 0
		1 0 0
		1 0 0
		1 0 0
		0 0.9999 9.999e-05
		0 0.9999 9.999e-05
		1 0 0
		1 0 0
		1 0 0
		1 0 0
		0 0.9999 9.999e-05
		0 0.9999 9.999e-05
		1 0 0
		1 0 0
		1 0 0
		1 0 0
		0 0.9999 9.999e-05
		0 0.9999 9.999e-05
		1 0 0
		1 0 0
		1 0 0
		1 0 0
		0 0.9999 9.999e-05
		0 0.9999 9.999e-05
		1 0 0
		1 0 0
		1 0 0
		1 0 0
		0 0.9999 9.999e-05
		0 0.9999 9.999e-05
		1 0 0
		1 0 0
		1 0 0
		1 0 0
		0 0.9999 9.999e-05
		0 0.9999 9.999e-05
		1 0 0
		1 0 0
		1 0 0
		1 0 0
		0 0.9999 9.999e-05
		0 0.9999 9.999e-05
		1 0 0
		1 0 0
		1 0 0
		1 0 0
		0 0.9999 9.999e-05
		0 0.9999 9.999e-05
		1 0 0
		1 0 0
		1 0 0
		1 0 0
		0 0.9999 9.999e-05
		0 0.9999 9.999e-05
		1 0 0
		1 0 0
		1 0 0
		1 0 0
		0 0.9999 9.999e-05
		0 0.9999 9.999e-05
		1 0 0
		1 0 0
		1 0 0
		1 0 0
		0 0.9999 9.999e-05
		0 0.9999 9.999e-05
		1 0 0
		1 0 0
		1 0 0
		1 0 0
		0 0.9999 9.999e-05
		0 0.9999 9.999e-05
		1 0 0
		1 0 0
		1 0 0
		1 0 0
		0 0.9999 9.999e-05
		0 0.9999 9.999e-05
		1 0 0
		1 0 0
		1 0 0
		1 0 0
		0 0.9999 9.999e-05
		0 0.9999 9.999e-05
		1 0 0
		1 0 0
		1 0 0
		1 0 0
		0 0.9999 9.999e-05
		0 0.9999 9.999e-05
		1 0 0
		1 0 0
		1 0 0
		1 0 0
		0 0.9999 9.999e-05
		0 0.9999 9.999e-05
		1 0 0
		1 0 0
		1 0 0
		1 0 0
		0 0.9999 9.999e-05
		0 0.9999 9.999e-05
		1 0 0
		1 0 0
		1 0 0
		1 0 0
		0 0.9999 9.999e-05
		0 0.9999 9.999e-05
		1 0 0
		1 0 0
		1 0 0
		1 0 0
		0 0.9999 9.999e-05
		0 0.9999 9.999e-05
		1 0 0
		1 0 0
		1 0 0
		1 0 0
		0 0.9999 9.999e-05
		0 0.9999 9.999e-05
		1 0 0
		1 0 0
		1 0 0
		1 0 0
		0 0.9999 9.999e-05
		0 0.9999 9.999e-05
		1 0 0
		1 0 0
		1 0 0
		1 0 0
		0 0.9999 9.999e-05
		0 0.9999 9.999e-05
		1 0 0
		1 0 0
		1 0 0
		1 0 0
		0 0.9999 9.999e-05
		0 0.9999 9.999e-05
		1 0 0
		1 0 0
		1 0 0
		1 0 0
		0 0.9999 9.999e-05
		0 0.9999 9.999e-05
		1 0 0
		1 0 0
		1 0 0
		1 0 0
		0 0.9999 9.999e-05
		0 0.9999 9.999e-05
		1 0 0
		1 0 0
		1 0 0
		1 0 0
		0 0.9999 9.999e-05
		0 0.9999 9.999e-05
		1 0 0
		1 0 0
		1 0 0
		1 0 0
		0 0.9999 9.999e-05
		0 0.9999 9.999e-05
		1 0 0
		1 0 0
		1 0 0
		1 0 0
		0 0.9999 9.999e-05
		0 0.9999 9.999e-05
		1 0 0
		1 0 0
		1 0 0
		1 0 0
		0 0.95 0.05
		0 0.9 0.1
		1 0 0
		1 0 0
		1 0 0
		1 0 0
		0 0.9999 9.999e-05
		0 0.9999 9.999e-05
	</TABLE>
</DEFINITION>
<DEFINITION>
	<FOR>F4</FOR>
	<GIVEN>Fault</GIVEN>
	<GIVEN>F97</GIVEN>
	<TABLE>
		1 0 0
		0 0.01 0.99
		1 0 0
		0 0.999 0.001
		1 0 0
		0 0.999 0.001
		1 0 0
		0 0.9 0.1
		1 0 0
		0 0.99 0.01
		1 0 0
		0 0.95 0.05
		1 0 0
		0 1 0
		1 0 0
		0 0.8 0.2
		1 0 0
		0 0.99 0.01
		1 0 0
		0 0.999 0.001
		1 0 0
		0 0.9 0.1
		1 0 0
		0 0.999 0.001
		1 0 0
		0 0.999 0.001
		1 0 0
		0 0.98 0.02
		1 0 0
		0 0.9 0.1
		1 0 0
		0 0.9 0.1
		1 0 0
		0 0.8 0.2
		1 0 0
		0 0.999 0.001
		1 0 0
		0 0.999 0.001
		1 0 0
		0 0.999 0.001
		1 0 0
		0 0.99 0.01
		1 0 0
		0 0.99 0.01
		1 0 0
		0 0.999 0.001
		1 0 0
		0 0.9 0.1
		1 0 0
		0 0.999 0.001
		1 0 0
		0 0.999 0.001
		1 0 0
		0 0.999 0.001
		1 0 0
		0 0.99 0.01
		1 0 0
		0 0.99 0.01
		1 0 0
		0 0.99 0.01
		1 0 0
		0 0.99 0.01
		1 0 0
		0 0.99 0.01
		1 0 0
		0 0.999 0.001
		1 0 0
		0 0.999 0.001
		1 0 0
		0 1 0
		1 0 0
		0 1 0
		1 0 0
		0 1 0
		1 0 0
		0 1 0
		1 0 0
		0 0.99999 1e-05
		1 0 0
		0 0.99999 1e-05
		1 0 0
		0 0.9 0.1
		1 0 0
		0 0.99999 1e-05
		1 0 0
		0 0.99999 1e-05
		1 0 0
		0 0.99999 1e-05
		1 0 0
		0 0.99999 1e-05
		1 0 0
		0 0.99999 1e-05
		1 0 0
		0 0.99999 1e-05
		1 0 0
		0 0.99999 1e-05
		1 0 0
		0 0.99999 1e-05
		1 0 0
		0 0.99999 1e-05
		1 0 0
		0 0.99999 1e-05
		1 0 0
		0 0.99999 1e-05
		1 0 0
		0 0.999 0.001
		1 0 0
		0 0.999 0.001
		1 0 0
		0 0.999 0.001
		1 0 0
		0 0.999 0.001
		1 0 0
		0 0.999 0.001
		1 0 0
		0 0.999 0.001
		1 0 0
		0 0.999 0.001
		1 0 0
		0 0.8 0.2
		1 0 0
		0 0.999 0.001
		1 0 0
		0 0.9 0.1
		1 0 0
		0 0.99999 1e-05
	</TABLE>
</DEFINITION>
<DEFINITION>
	<FOR>F5</FOR>
	<GIVEN>Fault</GIVEN>
	<GIVEN>F2</GIVEN>
	<GIVEN>F97</GIVEN>
	<TABLE>
		1 0 0 0
		1 0 0 0
		1 0 0 0
		0 0.9989 0.0009999 9.999e-05
		1 0 0 0
		0 0.989011 0.00999001 0.000999
		1 0 0 0
		1 0 0 0
		1 0 0 0
		0 0.9989 0.0009999 9.999e-05
		1 0 0 0
		0 0.989011 0.00999001 0.000999
		1 0 0 0
		1 0 0 0
		1 0 0 0
		0 0.9989 0.0009999 9.999e-05
		1 0 0 0
		0 0.989011 0.00999001 0.000999
		1 0 0 0
		1 0 0 0
		1 0 0 0
		0 0.9989 0.0009999 9.999e-05
		1 0 0 0
		0 0.989011 0.00999001 0.000999
		1 0 0 0
		1 0 0 0
		1 0 0 0
		0 0.9989 0.0009999 9.999e-05
		1 0 0 0
		0 0.989011 0.00999001 0.000999
		1 0 0 0
		1 0 0 0
		1 0 0 0
		0 0.9989 0.0009999 9.999e-05
		1 0 0 0
		0 0.989011 0.00999001 0.000999
		1 0 0 0
		1 0 0 0
		1 0 0 0
		0.25 0.25 0.25 0.25
		1 0 0 0
		0 0.000999 0.2997 0.699301
		1 0 0 0
		1 0 0 0
		1 0 0 0
		0 0.9989 0.0009999 9.999e-05
		1 0 0 0
		0 0.989011 0.00999001 0.000999
		1 0 0 0
		1 0 0 0
		1 0 0 0
		0 0.9989 0.0009999 9.999e-05
		1 0 0 0
		0 0.989011 0.00999001 0.000999
		1 0 0 0
		1 0 0 0
		1 0 0 0
		0 0.9989 0.0009999 9.999e-05
		1 0 0 0
		0 0.989011 0.00999001 0.000999
		1 0 0 0
		1 0 0 0
		1 0 0 0
		0 0.9989 0.0009999 9.999e-05
		1 0 0 0
		0 0.989011 0.00999001 0.000999
		1 0 0 0
		1 0 0 0
		1 0 0 0
		0 0.9989 0.0009999 9.999e-05
		1 0 0 0
		0 0.989011 0.00999001 0.000999
		1 0 0 0
		1 0 0 0
		1 0 0 0
		0 0.9989 0.0009999 9.999e-05
		1 0 0 0
		0 0.989011 0.00999001 0.000999
		1 0 0 0
		1 0 0 0
		1 0 0 0
		0 0.994036 0.00497018 0.00099404
		1 0 0 0
		0 0.94 0.05 0.01
		1 0 0 0
		1 0 0 0
		1 0 0 0
		0 0.9989 0.0009999 9.999e-05
		1 0 0 0
		0 0.989011 0.00999001 0.000999
		1 0 0 0
		1 0 0 0
		1 0 0 0
		0 0.9989 0.0009999 9.999e-05
		1 0 0 0
		0 0.989011 0.00999001 0.000999
		1 0 0 0
		1 0 0 0
		1 0 0 0
		0 0.9989 0.0009999 9.999e-05
		1 0 0 0
		0 0.989011 0.00999001 0.000999
		1 0 0 0
		1 0 0 0
		1 0 0 0
		0 0.9989 0.0009999 9.999e-05
		1 0 0 0
		0 0.989011 0.00999001 0.000999
		1 0 0 0
		1 0 0 0
		1 0 0 0
		0 0.9989 0.0009999 9.999e-05
		1 0 0 0
		0 0.989011 0.00999001 0.000999
		1 0 0 0
		1 0 0 0
		1 0 0 0
		0 0.9989 0.0009999 9.999e-05
		1 0 0 0
		0 0.989011 0.00999001 0.000999
		1 0 0 0
		1 0 0 0
		1 0 0 0
		0 0.9989 0.0009999 9.999e-05
		1 0 0 0
		0 0.989011 0.00999001 0.000999
		1 0 0 0
		1 0 0 0
		1 0 0 0
		0 0.9989 0.0009999 9.999e-05
		1 0 0 0
		0 0.989011 0.00999001 0.000999
		1 0 0 0
		1 0 0 0
		1 0 0 0
		0 0.9989 0.0009999 9.999e-05
		1 0 0 0
		0 0.989011 0.00999001 0.000999
		1 0 0 0
		1 0 0 0
		1 0 0 0
		0 0.9989 0.0009999 9.999e-05
		1 0 0 0
		0 0.989011 0.00999001 0.000999
		1 0 0 0
		1 0 0 0
		1 0 0 0
		0 0.9989 0.0009999 9.999e-05
		1 0 0 0
		0 0.989011 0.00999001 0.000999
		1 0 0 0
		1 0 0 0
		1 0 0 0
		0 0.9989 0.0009999 9.999e-05
		1 0 0 0
		0 0.989011 0.00999001 0.000999
		1 0 0 0
		1 0 0 0
		1 0 0 0
		0 0.9989 0.0009999 9.999e-05
		1 0 0 0
		0 0.989011 0.00999001 0.000999
		1 0 0 0
		1 0 0 0
		1 0 0 0
		0 0.9989 0.0009999 9.999e-05
		1 0 0 0
		0 0.989011 0.00999001 0.000999
		1 0 0 0
		1 0 0 0
		1 0 0 0
		0 0.9989 0.0009999 9.999e-05
		1 0 0 0
		0 0.989011 0.00999001 0.000999
		1 0 0 0
		1 0 0 0
		1 0 0 0
		0 0.9989 0.0009999 9.999e-05
		1 0 0 0
		0 0.989011 0.00999001 0.000999
		1 0 0 0
		1 0 0 0
		1 0 0 0
		0 0.9989 0.0009999 9.999e-05
		1 0 0 0
		0 0.989011 0.00999001 0.000999
		1 0 0 0
		1 0 0 0
		1 0 0 0
		0 0.9989 0.0009999 9.999e-05
		1 0 0 0
		0 0.989011 0.00999001 0.000999
		1 0 0 0
		1 0 0 0
		1 0 0 0
		0 0.9989 0.0009999 9.999e-05
		1 0 0 0
		0 0.989011 0.00999001 0.000999
		1 0 0 0
		1 0 0 0
		1 0 0 0
		0 0.9989 0.0009999 9.999e-05
		1 0 0 0
		0 0.989011 0.00999001 0.000999
		1 0 0 0
		1 0 0 0
		1 0 0 0
		0 0.9999 0.0001 0
		1 0 0 0
		0 0.999 0.001 0
		1 0 0 0
		1 0 0 0
		1 0 0 0
		0 0.9999 0.0001 0
		1 0 0 0
		0 0.999 0.001 0
		1 0 0 0
		1 0 0 0
		1 0 0 0
		0 0.9999 0.0001 0
		1 0 0 0
		0 0.999 0.001 0
		1 0 0 0
		1 0 0 0
		1 0 0 0
		0 0.9999 0.0001 0
		1 0 0 0
		0 0.999 0.001 0
		1 0 0 0
		1 0 0 0
		1 0 0 0
		0 0.9989 0.0009999 9.999e-05
		1 0 0 0
		0 0.989011 0.00999001 0.000999
		1 0 0 0
		1 0 0 0
		1 0 0 0
		0 0.9989 0.0009999 9.999e-05
		1 0 0 0
		0 0.989011 0.00999001 0.000999
		1 0 0 0
		1 0 0 0
		1 0 0 0
		0 0.9989 0.0009999 9.999e-05
		1 0 0 0
		0 0.989011 0.00999001 0.000999
		1 0 0 0
		1 0 0 0
		1 0 0 0
		0 0.9989 0.0009999 9.999e-05
		1 0 0 0
		0 0.989011 0.00999001 0.000999
		1 0 0 0
		1 0 0 0
		1 0 0 0
		0 0.9989 0.0009999 9.999e-05
		1 0 0 0
		0 0.989011 0.00999001 0.000999
		1 0 0 0
		1 0 0 0
		1 0 0 0
		0 0.9989 0.0009999 9.999e-05
		1 0 0 0
		0 0.989011 0.00999001 0.000999
		1 0 0 0
		1 0 0 0
		1 0 0 0
		0 0.9989 0.0009999 9.999e-05
		1 0 0 0
		0 0.989011 0.00999001 0.000999
		1 0 0 0
		1 0 0 0
		1 0 0 0
		0 0.9989 0.0009999 9.999e-05
		1 0 0 0
		0 0.989011 0.00999001 0.000999
		1 0 0 0
		1 0 0 0
		1 0 0 0
		0 0.9989 0.0009999 9.999e-05
		1 0 0 0
		0 0.989011 0.00999001 0.000999
		1 0 0 0
		1 0 0 0
		1 0 0 0
		0 0.9989 0.0009999 9.999e-05
		1 0 0 0
		0 0.989011 0.00999001 0.000999
		1 0 0 0
		1 0 0 0
		1 0 0 0
		0 0.9989 0.0009999 9.999e-05
		1 0 0 0
		0 0.989011 0.00999001 0.000999
		1 0 0 0
		1 0 0 0
		1 0 0 0
		0 0.9989 0.0009999 9.999e-05
		1 0 0 0
		0 0.989011 0.00999001 0.000999
		1 0 0 0
		1 0 0 0
		1 0 0 0
		0 0.9989 0.0009999 9.999e-05
		1 0 0 0
		0 0.989011 0.00999001 0.000999
		1 0 0 0
		1 0 0 0
		1 0 0 0
		0 0.9989 0.0009999 9.999e-05
		1 0 0 0
		0 0.989011 0.00999001 0.000999
		1 0 0 0
		1 0 0 0
		1 0 0 0
		0 0.9989 0.0009999 9.999e-05
		1 0 0 0
		0 0.989011 0.00999001 0.000999
		1 0 0 0
		1 0 0 0
		1 0 0 0
		0 0.9989 0.0009999 9.999e-05
		1 0 0 0
		0 0.989011 0.00999001 0.000999
		1 0 0 0
		1 0 0 0
		1 0 0 0
		0 0.9989 0.0009999 9.999e-05
		1 0 0 0
		0 0.989011 0.00999001 0.000999
		1 0 0 0
		1 0 0 0
		1 0 0 0
		0 0.9989 0.0009999 9.999e-05
		1 0 0 0
		0 0.989011 0.00999001 0.000999
		1 0 0 0
		1 0 0 0
		1 0 0 0
		0 0.9989 0.0009999 9.999e-05
		1 0 0 0
		0 0.989011 0.00999001 0.000999
		1 0 0 0
		1 0 0 0
		1 0 0 0
		0 0.9989 0.0009999 9.999e-05
		1 0 0 0
		0 0.989011 0.00999001 0.000999
		1 0 0 0
		1 0 0 0
		1 0 0 0
		0 0.9989 0.0009999 9.999e-05
		1 0 0 0
		0 0.989011 0.00999001 0.000999
		1 0 0 0
		1 0 0 0
		1 0 0 0
		0 0.993049 0.00496524 0.0019861
		1 0 0 0
		0 0.93 0.05 0.02
		1 0 0 0
		1 0 0 0
		1 0 0 0
		0 0.9989 0.0009999 9.999e-05
		1 0 0 0
		0 0.989011 0.00999001 0.000999
		1 0 0 0
		1 0 0 0
		1 0 0 0
		0 0.993049 0.00496524 0.0019861
		1 0 0 0
		0 0.93 0.05 0.02
		1 0 0 0
		1 0 0 0
		1 0 0 0
		0 0.9989 0.0009999 9.999e-05
		1 0 0 0
		0 0.989011 0.00999001 0.000999
	</TABLE>
</DEFINITION>
<DEFINITION>
	<FOR>F53</FOR>
	<GIVEN>Fault</GIVEN>
	<TABLE>
		0.3 0.4 0.29 0.01
		0.69993 0.289971 0.009999 9.999e-05
		0.69993 0.289971 0.009999 9.999e-05
		0.3 0.4 0.29 0.01
		0.05 0.3 0.55 0.1
		0.69993 0.289971 0.009999 9.999e-05
		0.941084 0.0490148 0.00980296 9.803e-05
		0.941084 0.0490148 0.00980296 9.803e-05
		0.5 0.45 0.04 0.01
		0.941084 0.0490148 0.00980296 9.803e-05
		0.3 0.4 0.29 0.01
		0.3 0.4 0.29 0.01
		0.941084 0.0490148 0.00980296 9.803e-05
		0.941084 0.0490148 0.00980296 9.803e-05
		0.5 0.45 0.04 0.01
		0.5 0.45 0.04 0.01
		0.941084 0.0490148 0.00980296 9.803e-05
		0.941084 0.0490148 0.00980296 9.803e-05
		0.941084 0.0490148 0.00980296 9.803e-05
		0.941084 0.0490148 0.00980296 9.803e-05
		0.69993 0.289971 0.009999 9.999e-05
		0.941084 0.0490148 0.00980296 9.803e-05
		0.941084 0.0490148 0.00980296 9.803e-05
		0.3 0.4 0.29 0.01
		0.941084 0.0490148 0.00980296 9.803e-05
		0.941084 0.0490148 0.00980296 9.803e-05
		0.941084 0.0490148 0.00980296 9.803e-05
		0.941084 0.0490148 0.00980296 9.803e-05
		0.941084 0.0490148 0.00980296 9.803e-05
		0.941084 0.0490148 0.00980296 9.803e-05
		0.941084 0.0490148 0.00980296 9.803e-05
		0.941084 0.0490148 0.00980296 9.803e-05
		0.941084 0.0490148 0.00980296 9.803e-05
		0.941084 0.0490148 0.00980296 9.803e-05
		0.941084 0.0490148 0.00980296 9.803e-05
		0.941084 0.0490148 0.00980296 9.803e-05
		0.941084 0.0490148 0.00980296 9.803e-05
		0.941084 0.0490148 0.00980296 9.803e-05
		0.941084 0.0490148 0.00980296 9.803e-05
		0.941084 0.0490148 0.00980296 9.803e-05
		0.941084 0.0490148 0.00980296 9.803e-05
		0.941084 0.0490148 0.00980296 9.803e-05
		0.941084 0.0490148 0.00980296 9.803e-05
		0.941084 0.0490148 0.00980296 9.803e-05
		0.941084 0.0490148 0.00980296 9.803e-05
		0.941084 0.0490148 0.00980296 9.803e-05
		0.5 0.45 0.04 0.01
		0.5 0.45 0.04 0.01
		0.941084 0.0490148 0.00980296 9.803e-05
		0.941084 0.0490148 0.00980296 9.803e-05
		0.941084 0.0490148 0.00980296 9.803e-05
		0.941084 0.0490148 0.00980296 9.803e-05
		0.941084 0.0490148 0.00980296 9.803e-05
		0.01 0.05 0.69 0.25
		0.941084 0.0490148 0.00980296 9.803e-05
		0.941084 0.0490148 0.00980296 9.803e-05
		0.941084 0.0490148 0.00980296 9.803e-05
		0.3 0.4 0.29 0.01
		0.941084 0.0490148 0.00980296 9.803e-05
		0.3 0.4 0.29 0.01
		0.941084 0.0490148 0.00980296 9.803e-05
		0.3 0.4 0.29 0.01
		0.941084 0.0490148 0.00980296 9.803e-05
	</TABLE>
</DEFINITION>
<DEFINITION>
	<FOR>F6</FOR>
	<GIVEN>Fault</GIVEN>
	<GIVEN>F53</GIVEN>
	<TABLE>
		0.95 0.05 0 0
		0.75 0.25 0 0
		0.499501 0.44955 0.04995 0.000999
		0 0.05 0.4 0.55
		0.95 0.05 0 0
		0.75 0.25 0 0
		0.499501 0.44955 0.04995 0.000999
		0 0.05 0.4 0.55
		0.95 0.05 0 0
		0.75 0.25 0 0
		0.499501 0.44955 0.04995 0.000999
		0 0.05 0.4 0.55
		0.95 0.05 0 0
		0.75 0.25 0 0
		0.499501 0.44955 0.04995 0.000999
		0 0.05 0.4 0.55
		0 0.000999 0.24975 0.749251
		0.25 0.75 0 0
		0 0.3996 0.599401 0.000999
		0 0.01 0.4 0.59
		0.95 0.05 0 0
		0.75 0.25 0 0
		0.499501 0.44955 0.04995 0.000999
		0 0.05 0.4 0.55
		0.95 0.05 0 0
		0.75 0.25 0 0
		0.499501 0.44955 0.04995 0.000999
		0 0.05 0.4 0.55
		0.95 0.05 0 0
		0.75 0.25 0 0
		0.499501 0.44955 0.04995 0.000999
		0 0.05 0.4 0.55
		0.95 0.05 0 0
		0.75 0.25 0 0
		0.499501 0.44955 0.04995 0.000999
		0 0.05 0.4 0.55
		0 0.05 0.35 0.6
		0 0.04 0.36 0.6
		0 0.01 0.4 0.59
		0 0.00537634 0.134409 0.860215
		0.95 0.05 0 0
		0.75 0.25 0 0
		0.499501 0.44955 0.04995 0.000999
		0 0.05 0.4 0.55
		0.95 0.05 0 0
		0.75 0.25 0 0
		0.499501 0.44955 0.04995 0.000999
		0 0.05 0.4 0.55
		0.95 0.05 0 0
		0.75 0.25 0 0
		0.499501 0.44955 0.04995 0.000999
		0 0.05 0.4 0.55
		0.95 0.05 0 0
		0.75 0.25 0 0
		0.499501 0.44955 0.04995 0.000999
		0 0.05 0.4 0.55
		0.95 0.05 0 0
		0.75 0.25 0 0
		0.499501 0.44955 0.04995 0.000999
		0 0.05 0.4 0.55
		0.95 0.05 0 0
		0.75 0.25 0 0
		0.499501 0.44955 0.04995 0.000999
		0 0.05 0.4 0.55
		0.95 0.05 0 0
		0.75 0.25 0 0
		0.499501 0.44955 0.04995 0.000999
		0 0.05 0.4 0.55
		0.95 0.05 0 0
		0.75 0.25 0 0
		0.499501 0.44955 0.04995 0.000999
		0 0.05 0.4 0.55
		0.95 0.05 0 0
		0.75 0.25 0 0
		0.499501 0.44955 0.04995 0.000999
		0 0.05 0.4 0.55
		0.95 0.05 0 0
		0.75 0.25 0 0
		0.499501 0.44955 0.04995 0.000999
		0 0.05 0.4 0.55
		0.95 0.05 0 0
		0.75 0.25 0 0
		0.499501 0.44955 0.04995 0.000999
		0 0.05 0.4 0.55
		0.95 0.05 0 0
		0.75 0.25 0 0
		0.499501 0.44955 0.04995 0.000999
		0 0.05 0.4 0.55
		0.95 0.05 0 0
		0.75 0.25 0 0
		0.499501 0.44955 0.04995 0.000999
		0 0.05 0.4 0.55
		0.95 0.05 0 0
		0.75 0.25 0 0
		0.499501 0.44955 0.04995 0.000999
		0 0.05 0.4 0.55
		0.95 0.05 0 0
		0.75 0.25 0 0
		0.499501 0.44955 0.04995 0.000999
		0 0.05 0.4 0.55
		0.95 0.05 0 0
		0.75 0.25 0 0
		0.499501 0.44955 0.04995 0.000999
		0 0.05 0.4 0.55
		0.95 0.05 0 0
		0.75 0.25 0 0
		0.499501 0.44955 0.04995 0.000999
		0 0.05 0.4 0.55
		0.95 0.05 0 0
		0.75 0.25 0 0
		0.499501 0.44955 0.04995 0.000999
		0 0.05 0.4 0.55
		0.95 0.05 0 0
		0.75 0.25 0 0
		0.499501 0.44955 0.04995 0.000999
		0 0.05 0.4 0.55
		0.95 0.05 0 0
		0.75 0.25 0 0
		0.499501 0.44955 0.04995 0.000999
		0 0.05 0.4 0.55
		0.95 0.05 0 0
		0.75 0.25 0 0
		0.499501 0.44955 0.04995 0.000999
		0 0.05 0.4 0.55
		0.95 0.05 0 0
		0.75 0.25 0 0
		0.499501 0.44955 0.04995 0.000999
		0 0.05 0.4 0.55
		0.95 0.05 0 0
		0.75 0.25 0 0
		0.499501 0.44955 0.04995 0.000999
		0 0.05 0.4 0.55
		0.95 0.05 0 0
		0.75 0.25 0 0
		0.499501 0.44955 0.04995 0.000999
		0 0.05 0.4 0.55
		0.95 0.05 0 0
		0.75 0.25 0 0
		0.499501 0.44955 0.04995 0.000999
		0 0.05 0.4 0.55
		0.95 0.05 0 0
		0.75 0.25 0 0
		0.499501 0.44955 0.04995 0.000999
		0 0.05 0.4 0.55
		0.95 0.05 0 0
		0.75 0.25 0 0
		0.499501 0.44955 0.04995 0.000999
		0 0.05 0.4 0.55
		0.95 0.05 0 0
		0.75 0.25 0 0
		0.499501 0.44955 0.04995 0.000999
		0 0.05 0.4 0.55
		0.95 0.05 0 0
		0.75 0.25 0 0
		0.499501 0.44955 0.04995 0.000999
		0 0.05 0.4 0.55
		0.95 0.05 0 0
		0.75 0.25 0 0
		0.499501 0.44955 0.04995 0.000999
		0 0.05 0.4 0.55
		0.95 0.05 0 0
		0.75 0.25 0 0
		0.499501 0.44955 0.04995 0.000999
		0 0.05 0.4 0.55
		0.95 0.05 0 0
		0.75 0.25 0 0
		0.499501 0.44955 0.04995 0.000999
		0 0.05 0.4 0.55
		0.95 0.05 0 0
		0.75 0.25 0 0
		0.499501 0.44955 0.04995 0.000999
		0 0.05 0.4 0.55
		0.95 0.05 0 0
		0.75 0.25 0 0
		0.499501 0.44955 0.04995 0.000999
		0 0.05 0.4 0.55
		0.95 0.05 0 0
		0.75 0.25 0 0
		0.499501 0.44955 0.04995 0.000999
		0 0.05 0.4 0.55
		0.95 0.05 0 0
		0.75 0.25 0 0
		0.499501 0.44955 0.04995 0.000999
		0 0.05 0.4 0.55
		0.95 0.05 0 0
		0.75 0.25 0 0
		0.499501 0.44955 0.04995 0.000999
		0 0.05 0.4 0.55
		0.95 0.05 0 0
		0.75 0.25 0 0
		0.499501 0.44955 0.04995 0.000999
		0 0.05 0.4 0.55
		0.95 0.05 0 0
		0.75 0.25 0 0
		0.499501 0.44955 0.04995 0.000999
		0 0.05 0.4 0.55
		0.95 0.05 0 0
		0.75 0.25 0 0
		0.499501 0.44955 0.04995 0.000999
		0 0.05 0.4 0.55
		0.95 0.05 0 0
		0.75 0.25 0 0
		0.499501 0.44955 0.04995 0.000999
		0 0.05 0.4 0.55
		0.95 0.05 0 0
		0.75 0.25 0 0
		0.499501 0.44955 0.04995 0.000999
		0 0.05 0.4 0.55
		0.95 0.05 0 0
		0.75 0.25 0 0
		0.499501 0.44955 0.04995 0.000999
		0 0.05 0.4 0.55
		0.95 0.05 0 0
		0.75 0.25 0 0
		0.499501 0.44955 0.04995 0.000999
		0 0.05 0.4 0.55
		0.95 0.05 0 0
		0.75 0.25 0 0
		0.499501 0.44955 0.04995 0.000999
		0 0.05 0.4 0.55
		0.95 0.05 0 0
		0.75 0.25 0 0
		0.499501 0.44955 0.04995 0.000999
		0 0.05 0.4 0.55
		0.95 0.05 0 0
		0.75 0.25 0 0
		0.499501 0.44955 0.04995 0.000999
		0 0.05 0.4 0.55
		0.95 0.05 0 0
		0.75 0.25 0 0
		0.499501 0.44955 0.04995 0.000999
		0 0.05 0.4 0.55
		0.95 0.05 0 0
		0.75 0.25 0 0
		0.499501 0.44955 0.04995 0.000999
		0 0.05 0.4 0.55
		0.95 0.05 0 0
		0.75 0.25 0 0
		0.499501 0.44955 0.04995 0.000999
		0 0.05 0.4 0.55
		0.95 0.05 0 0
		0.75 0.25 0 0
		0.499501 0.44955 0.04995 0.000999
		0 0.05 0.4 0.55
		0.95 0.05 0 0
		0.75 0.25 0 0
		0.499501 0.44955 0.04995 0.000999
		0 0.05 0.4 0.55
		0.95 0.05 0 0
		0.75 0.25 0 0
		0.499501 0.44955 0.04995 0.000999
		0 0.05 0.4 0.55
	</TABLE>
</DEFINITION>
<DEFINITION>
	<FOR>F7</FOR>
	<GIVEN>Fault</GIVEN>
	<TABLE>
		0.979021 0.01998 0.000999 0 0
		0.979021 0.01998 0.000999 0 0
		0.979021 0.01998 0.000999 0 0
		0.979021 0.01998 0.000999 0 0
		0.499501 0.3996 0.0999001 0.000999 0
		0.979021 0.01998 0.000999 0 0
		0.979021 0.01998 0.000999 0 0
		0.979021 0.01998 0.000999 0 0
		0.699301 0.1998 0.0999001 0.000999 0
		0.979021 0.01998 0.000999 0 0
		0.979021 0.01998 0.000999 0 0
		0.01 0.54 0.25 0.15 0.05
		0 0.01 0.09 0.6 0.3
		0.979021 0.01998 0.000999 0 0
		0.979021 0.01998 0.000999 0 0
		0.979021 0.01998 0.000999 0 0
		0.979021 0.01998 0.000999 0 0
		0.979021 0.01998 0.000999 0 0
		0.979021 0.01998 0.000999 0 0
		0.979021 0.01998 0.000999 0 0
		0.979021 0.01998 0.000999 0 0
		0.979021 0.01998 0.000999 0 0
		0.899101 0.0899101 0.00999001 0.000999 0
		0.979021 0.01998 0.000999 0 0
		0 0.01 0.09 0.6 0.3
		0.979021 0.01998 0.000999 0 0
		0.979021 0.01998 0.000999 0 0
		0.94 0.03 0.02 0.01 0
		0.94 0.03 0.02 0.01 0
		0.979021 0.01998 0.000999 0 0
		0.979021 0.01998 0.000999 0 0
		0.979021 0.01998 0.000999 0 0
		0.979021 0.01998 0.000999 0 0
		0.979021 0.01998 0.000999 0 0
		0.979021 0.01998 0.000999 0 0
		0.979021 0.01998 0.000999 0 0
		0.979021 0.01998 0.000999 0 0
		0.979021 0.01998 0.000999 0 0
		0.979021 0.01998 0.000999 0 0
		0.979021 0.01998 0.000999 0 0
		0.979021 0.01998 0.000999 0 0
		0.979021 0.01998 0.000999 0 0
		0.979021 0.01998 0.000999 0 0
		0.979021 0.01998 0.000999 0 0
		0.979021 0.01998 0.000999 0 0
		0.979021 0.01998 0.000999 0 0
		0.979021 0.01998 0.000999 0 0
		0.979021 0.01998 0.000999 0 0
		0.979021 0.01998 0.000999 0 0
		0.979021 0.01998 0.000999 0 0
		0.979021 0.01998 0.000999 0 0
		0.979021 0.01998 0.000999 0 0
		0.979021 0.01998 0.000999 0 0
		0.979021 0.01998 0.000999 0 0
		0.979021 0.01998 0.000999 0 0
		0.979021 0.01998 0.000999 0 0
		0.979021 0.01998 0.000999 0 0
		0.979021 0.01998 0.000999 0 0
		0.979021 0.01998 0.000999 0 0
		0.979021 0.01998 0.000999 0 0
		0.979021 0.01998 0.000999 0 0
		0.979021 0.01998 0.000999 0 0
		0.979021 0.01998 0.000999 0 0
	</TABLE>
</DEFINITION>
<DEFINITION>
	<FOR>F56</FOR>
	<GIVEN>Fault</GIVEN>
	<TABLE>
		0.989011 0.00999001 0.000999 0
		0.989011 0.00999001 0.000999 0
		0.989011 0.00999001 0.000999 0
		0 0.4 0.59 0.01
		0.989011 0.00999001 0.000999 0
		0.989011 0.00999001 0.000999 0
		0.989011 0.00999001 0.000999 0
		0.989011 0.00999001 0.000999 0
		0.7 0.25 0.04 0.01
		0.05 0.75 0.19 0.01
		0.899101 0.0899101 0.00999001 0.000999
		0.655556 0.277778 0.0555556 0.0111111
		0.989011 0.00999001 0.000999 0
		0.989011 0.00999001 0.000999 0
		0 0.2 0.75 0.05
		0 0.2 0.75 0.05
		0.989011 0.00999001 0.000999 0
		0.989011 0.00999001 0.000999 0
		0.989011 0.00999001 0.000999 0
		0.989011 0.00999001 0.000999 0
		0.989011 0.00999001 0.000999 0
		0.989011 0.00999001 0.000999 0
		0.01 0.1 0.3 0.59
		0.899101 0.0899101 0.00999001 0.000999
		0.989011 0.00999001 0.000999 0
		0.989001 0.00998991 0.00099899 9.99e-06
		0.989001 0.00998991 0.00099899 9.99e-06
		0.49 0.2 0.3 0.01
		0.49 0.2 0.3 0.01
		0.49 0.2 0.3 0.01
		0.841584 0.128713 0.019802 0.00990099
		0.841584 0.128713 0.019802 0.00990099
		0.92 0.05 0.02 0.01
		0.92 0.05 0.02 0.01
		0.993 0.001 0.001 0.005
		0.993 0.001 0.001 0.005
		0.993 0.001 0.001 0.005
		0.993 0.001 0.001 0.005
		0.944 0.05 0.005 0.001
		0.944 0.05 0.005 0.001
		0.989001 0.00998991 0.00099899 9.99e-06
		0.944 0.05 0.005 0.001
		0.944 0.05 0.005 0.001
		0.83 0.1 0.05 0.02
		0.83 0.1 0.05 0.02
		0.83 0.1 0.05 0.02
		0.944 0.05 0.005 0.001
		0.83 0.1 0.05 0.02
		0.83 0.1 0.05 0.02
		0.83 0.1 0.05 0.02
		0.83 0.1 0.05 0.02
		0.944 0.05 0.005 0.001
		0.989011 0.00999001 0.000999 0
		0.989011 0.00999001 0.000999 0
		0.989011 0.00999001 0.000999 0
		0.989011 0.00999001 0.000999 0
		0.84 0.1 0.05 0.01
		0.989011 0.00999001 0.000999 0
		0.989011 0.00999001 0.000999 0
		0.989011 0.00999001 0.000999 0
		0.799201 0.14985 0.04995 0.000999
		0.989011 0.00999001 0.000999 0
		0.83 0.1 0.05 0.02
	</TABLE>
</DEFINITION>
<DEFINITION>
	<FOR>F8</FOR>
	<GIVEN>Fault</GIVEN>
	<GIVEN>F53</GIVEN>
	<GIVEN>F56</GIVEN>
	<TABLE>
		0.95 0.05 0
		0.915423 0.079602 0.00497512
		0.8 0.2 0
		0.8 0.2 0
		0.904762 0.0857143 0.00952381
		0.885 0.1 0.015
		0.79 0.17 0.04
		0.904762 0.0857143 0.00952381
		0.75 0.2 0.05
		0.755 0.23 0.015
		0.64 0.28 0.08
		0.75 0.2 0.05
		0.55 0.2 0.25
		0.52 0.23 0.25
		0.35 0.35 0.3
		0 0.1 0.9
		0.95 0.05 0
		0.915423 0.079602 0.00497512
		0.8 0.2 0
		0.8 0.2 0
		0.904762 0.0857143 0.00952381
		0.885 0.1 0.015
		0.79 0.17 0.04
		0.904762 0.0857143 0.00952381
		0.75 0.2 0.05
		0.755 0.23 0.015
		0.64 0.28 0.08
		0.75 0.2 0.05
		0.55 0.2 0.25
		0.52 0.23 0.25
		0.35 0.35 0.3
		0 0.1 0.9
		0.95 0.05 0
		0.915423 0.079602 0.00497512
		0.8 0.2 0
		0.8 0.2 0
		0.904762 0.0857143 0.00952381
		0.885 0.1 0.015
		0.79 0.17 0.04
		0.904762 0.0857143 0.00952381
		0.75 0.2 0.05
		0.755 0.23 0.015
		0.64 0.28 0.08
		0.75 0.2 0.05
		0.55 0.2 0.25
		0.52 0.23 0.25
		0.35 0.35 0.3
		0 0.1 0.9
		0.95 0.05 0
		0.915423 0.079602 0.00497512
		0.8 0.2 0
		0.8 0.2 0
		0.904762 0.0857143 0.00952381
		0.885 0.1 0.015
		0.79 0.17 0.04
		0.904762 0.0857143 0.00952381
		0.75 0.2 0.05
		0.755 0.23 0.015
		0.64 0.28 0.08
		0.75 0.2 0.05
		0.55 0.2 0.25
		0.52 0.23 0.25
		0.35 0.35 0.3
		0 0.1 0.9
		0 0.001 0.999
		0 0.001 0.999
		0 0.01 0.99
		0 0.1 0.9
		0.95 0.04 0.01
		0.915 0.07 0.015
		0.84 0.12 0.04
		0.95 0.04 0.01
		0.8 0.15 0.05
		0.265 0.72 0.015
		0.69 0.23 0.08
		0.8 0.15 0.05
		0.6 0.15 0.25
		0.57 0.18 0.25
		0.4 0.3 0.3
		0 0.1 0.9
		0.95 0.05 0
		0.915423 0.079602 0.00497512
		0.8 0.2 0
		0.8 0.2 0
		0.904762 0.0857143 0.00952381
		0.885 0.1 0.015
		0.79 0.17 0.04
		0.904762 0.0857143 0.00952381
		0.75 0.2 0.05
		0.755 0.23 0.015
		0.64 0.28 0.08
		0.75 0.2 0.05
		0.55 0.2 0.25
		0.52 0.23 0.25
		0.35 0.35 0.3
		0 0.1 0.9
		0.99 0.01 0
		0.954545 0.040404 0.00505051
		0.99 0.01 0
		0.99 0.01 0
		0.95 0.04 0.01
		0.915 0.07 0.015
		0.84 0.12 0.04
		0.95 0.04 0.01
		0.8 0.15 0.05
		0.265 0.72 0.015
		0.69 0.23 0.08
		0.8 0.15 0.05
		0.6 0.15 0.25
		0.57 0.18 0.25
		0.4 0.3 0.3
		0 0.1 0.9
		0.99 0.01 0
		0.954545 0.040404 0.00505051
		0.99 0.01 0
		0.99 0.01 0
		0.95 0.04 0.01
		0.915 0.07 0.015
		0.84 0.12 0.04
		0.95 0.04 0.01
		0.8 0.15 0.05
		0.265 0.72 0.015
		0.69 0.23 0.08
		0.8 0.15 0.05
		0.6 0.15 0.25
		0.57 0.18 0.25
		0.4 0.3 0.3
		0 0.1 0.9
		0.5 0.49 0.01
		0.49 0.495 0.015
		0.5 0.45 0.05
		0.5 0.45 0.05
		0.48 0.5 0.02
		0.525 0.45 0.025
		0.5 0.45 0.05
		0.48 0.5 0.02
		0.3 0.65 0.05
		0.275 0.67 0.055
		0.19 0.73 0.08
		0.342857 0.619048 0.0380952
		0.05 0.65 0.3
		0.05 0.65 0.3
		0.04 0.61 0.35
		0 0.1 0.9
		0.99 0.01 0
		0.954545 0.040404 0.00505051
		0.99 0.01 0
		0.99 0.01 0
		0.95 0.04 0.01
		0.915 0.07 0.015
		0.84 0.12 0.04
		0.95 0.04 0.01
		0.8 0.15 0.05
		0.265 0.72 0.015
		0.69 0.23 0.08
		0.8 0.15 0.05
		0.6 0.15 0.25
		0.57 0.18 0.25
		0.4 0.3 0.3
		0 0.1 0.9
		0.95 0.05 0
		0.915423 0.079602 0.00497512
		0.8 0.2 0
		0.8 0.2 0
		0.904762 0.0857143 0.00952381
		0.885 0.1 0.015
		0.79 0.17 0.04
		0.904762 0.0857143 0.00952381
		0.75 0.2 0.05
		0.755 0.23 0.015
		0.64 0.28 0.08
		0.75 0.2 0.05
		0.55 0.2 0.25
		0.52 0.23 0.25
		0.35 0.35 0.3
		0 0.1 0.9
		0.79 0.2 0.01
		0.755 0.23 0.015
		0.79 0.2 0.01
		0.79 0.2 0.01
		0.74 0.24 0.02
		0.725 0.25 0.025
		0.7 0.25 0.05
		0.74 0.24 0.02
		0.6 0.34 0.06
		0.565 0.37 0.065
		0.49 0.42 0.09
		0.61 0.34 0.05
		0.49 0.25 0.26
		0.46 0.28 0.26
		0.29 0.4 0.31
		0 0.1 0.9
		0.99 0.01 0
		0.954545 0.040404 0.00505051
		0.99 0.01 0
		0.99 0.01 0
		0.95 0.04 0.01
		0.915 0.07 0.015
		0.84 0.12 0.04
		0.95 0.04 0.01
		0.8 0.15 0.05
		0.265 0.72 0.015
		0.69 0.23 0.08
		0.8 0.15 0.05
		0.6 0.15 0.25
		0.57 0.18 0.25
		0.4 0.3 0.3
		0 0.1 0.9
		0.99 0.01 0
		0.954545 0.040404 0.00505051
		0.99 0.01 0
		0.99 0.01 0
		0.95 0.04 0.01
		0.915 0.07 0.015
		0.84 0.12 0.04
		0.95 0.04 0.01
		0.8 0.15 0.05
		0.265 0.72 0.015
		0.69 0.23 0.08
		0.8 0.15 0.05
		0.6 0.15 0.25
		0.57 0.18 0.25
		0.4 0.3 0.3
		0 0.1 0.9
		0.333333 0.333333 0.333333
		0.2 0.75 0.05
		0.13 0.8 0.07
		0.38 0.6 0.02
		0.333333 0.333333 0.333333
		0.15 0.79 0.06
		0.05 0.87 0.08
		0.33 0.64 0.03
		0.333333 0.333333 0.333333
		0.05 0.85 0.1
		0.02 0.86 0.12
		0.18 0.75 0.07
		0.333333 0.333333 0.333333
		0.02 0.68 0.3
		0.01 0.67 0.32
		0.00497512 0.726368 0.268657
		0.333333 0.333333 0.333333
		0.2 0.75 0.05
		0.13 0.8 0.07
		0.38 0.6 0.02
		0.333333 0.333333 0.333333
		0.15 0.79 0.06
		0.05 0.87 0.08
		0.33 0.64 0.03
		0.333333 0.333333 0.333333
		0.05 0.85 0.1
		0.02 0.86 0.12
		0.18 0.75 0.07
		0.333333 0.333333 0.333333
		0.02 0.68 0.3
		0.01 0.67 0.32
		0.00497512 0.726368 0.268657
		0.99 0.01 0
		0.954545 0.040404 0.00505051
		0.99 0.01 0
		0.99 0.01 0
		0.95 0.04 0.01
		0.915 0.07 0.015
		0.84 0.12 0.04
		0.95 0.04 0.01
		0.8 0.15 0.05
		0.265 0.72 0.015
		0.69 0.23 0.08
		0.8 0.15 0.05
		0.6 0.15 0.25
		0.57 0.18 0.25
		0.4 0.3 0.3
		0 0.1 0.9
		0.99 0.01 0
		0.954545 0.040404 0.00505051
		0.99 0.01 0
		0.99 0.01 0
		0.95 0.04 0.01
		0.915 0.07 0.015
		0.84 0.12 0.04
		0.95 0.04 0.01
		0.8 0.15 0.05
		0.265 0.72 0.015
		0.69 0.23 0.08
		0.8 0.15 0.05
		0.6 0.15 0.25
		0.57 0.18 0.25
		0.4 0.3 0.3
		0 0.1 0.9
		0 0.2 0.8
		0 0.2 0.8
		0 0.2 0.8
		0 0.2 0.8
		0 0.2 0.8
		0 0.2 0.8
		0 0.2 0.8
		0 0.25 0.75
		0 0.15 0.85
		0 0.15 0.85
		0 0.15 0.85
		0 0.2 0.8
		0 0.1 0.9
		0 0.1 0.9
		0 0.05 0.95
		0 0.02 0.98
		0.01 0.5 0.49
		0.01 0.5 0.49
		0.01 0.5 0.49
		0.01 0.5 0.49
		0.01 0.49 0.5
		0.01 0.49 0.5
		0.01 0.5 0.49
		0.01 0.54 0.45
		0.000999 0.44955 0.549451
		0.000999 0.44955 0.549451
		0.000999 0.44955 0.549451
		0.000999 0.499501 0.499501
		9.999e-05 0.249975 0.749925
		9.999e-05 0.249975 0.749925
		9.999e-05 0.19998 0.79992
		0.01 0.05 0.94
		0.95 0.05 0
		0.915423 0.079602 0.00497512
		0.8 0.2 0
		0.8 0.2 0
		0.904762 0.0857143 0.00952381
		0.885 0.1 0.015
		0.79 0.17 0.04
		0.904762 0.0857143 0.00952381
		0.75 0.2 0.05
		0.755 0.23 0.015
		0.64 0.28 0.08
		0.75 0.2 0.05
		0.55 0.2 0.25
		0.52 0.23 0.25
		0.35 0.35 0.3
		0 0.1 0.9
		0.99 0.01 0
		0.954545 0.040404 0.00505051
		0.99 0.01 0
		0.99 0.01 0
		0.95 0.04 0.01
		0.915 0.07 0.015
		0.84 0.12 0.04
		0.95 0.04 0.01
		0.8 0.15 0.05
		0.265 0.72 0.015
		0.69 0.23 0.08
		0.8 0.15 0.05
		0.6 0.15 0.25
		0.57 0.18 0.25
		0.4 0.3 0.3
		0 0.1 0.9
		0.99 0.01 0
		0.954545 0.040404 0.00505051
		0.99 0.01 0
		0.99 0.01 0
		0.95 0.04 0.01
		0.915 0.07 0.015
		0.84 0.12 0.04
		0.95 0.04 0.01
		0.8 0.15 0.05
		0.265 0.72 0.015
		0.69 0.23 0.08
		0.8 0.15 0.05
		0.6 0.15 0.25
		0.57 0.18 0.25
		0.4 0.3 0.3
		0 0.1 0.9
		0.95 0.05 0
		0.915423 0.079602 0.00497512
		0.8 0.2 0
		0.8 0.2 0
		0.904762 0.0857143 0.00952381
		0.885 0.1 0.015
		0.79 0.17 0.04
		0.904762 0.0857143 0.00952381
		0.75 0.2 0.05
		0.755 0.23 0.015
		0.64 0.28 0.08
		0.75 0.2 0.05
		0.55 0.2 0.25
		0.52 0.23 0.25
		0.35 0.35 0.3
		0 0.1 0.9
		0.99 0.01 0
		0.954545 0.040404 0.00505051
		0.99 0.01 0
		0.99 0.01 0
		0.95 0.04 0.01
		0.915 0.07 0.015
		0.84 0.12 0.04
		0.95 0.04 0.01
		0.8 0.15 0.05
		0.265 0.72 0.015
		0.69 0.23 0.08
		0.8 0.15 0.05
		0.6 0.15 0.25
		0.57 0.18 0.25
		0.4 0.3 0.3
		0 0.1 0.9
		0.99 0.01 0
		0.954545 0.040404 0.00505051
		0.99 0.01 0
		0.99 0.01 0
		0.95 0.04 0.01
		0.915 0.07 0.015
		0.84 0.12 0.04
		0.95 0.04 0.01
		0.8 0.15 0.05
		0.265 0.72 0.015
		0.69 0.23 0.08
		0.8 0.15 0.05
		0.6 0.15 0.25
		0.57 0.18 0.25
		0.4 0.3 0.3
		0 0.1 0.9
		0.99 0.01 0
		0.954545 0.040404 0.00505051
		0.99 0.01 0
		0.99 0.01 0
		0.95 0.04 0.01
		0.915 0.07 0.015
		0.84 0.12 0.04
		0.95 0.04 0.01
		0.8 0.15 0.05
		0.265 0.72 0.015
		0.69 0.23 0.08
		0.8 0.15 0.05
		0.6 0.15 0.25
		0.57 0.18 0.25
		0.4 0.3 0.3
		0 0.1 0.9
		0.99 0.01 0
		0.954545 0.040404 0.00505051
		0.99 0.01 0
		0.99 0.01 0
		0.95 0.04 0.01
		0.915 0.07 0.015
		0.84 0.12 0.04
		0.95 0.04 0.01
		0.8 0.15 0.05
		0.265 0.72 0.015
		0.69 0.23 0.08
		0.8 0.15 0.05
		0.6 0.15 0.25
		0.57 0.18 0.25
		0.4 0.3 0.3
		0 0.1 0.9
		0.99 0.01 0
		0.954545 0.040404 0.00505051
		0.99 0.01 0
		0.99 0.01 0
		0.95 0.04 0.01
		0.915 0.07 0.015
		0.84 0.12 0.04
		0.95 0.04 0.01
		0.8 0.15 0.05
		0.265 0.72 0.015
		0.69 0.23 0.08
		0.8 0.15 0.05
		0.6 0.15 0.25
		0.57 0.18 0.25
		0.4 0.3 0.3
		0 0.1 0.9
		0.99 0.01 0
		0.954545 0.040404 0.00505051
		0.99 0.01 0
		0.99 0.01 0
		0.95 0.04 0.01
		0.915 0.07 0.015
		0.84 0.12 0.04
		0.95 0.04 0.01
		0.8 0.15 0.05
		0.265 0.72 0.015
		0.69 0.23 0.08
		0.8 0.15 0.05
		0.6 0.15 0.25
		0.57 0.18 0.25
		0.4 0.3 0.3
		0 0.1 0.9
		0.99 0.01 0
		0.954545 0.040404 0.00505051
		0.99 0.01 0
		0.99 0.01 0
		0.95 0.04 0.01
		0.915 0.07 0.015
		0.84 0.12 0.04
		0.95 0.04 0.01
		0.8 0.15 0.05
		0.265 0.72 0.015
		0.69 0.23 0.08
		0.8 0.15 0.05
		0.6 0.15 0.25
		0.57 0.18 0.25
		0.4 0.3 0.3
		0 0.1 0.9
		0.99 0.01 0
		0.954545 0.040404 0.00505051
		0.99 0.01 0
		0.99 0.01 0
		0.95 0.04 0.01
		0.915 0.07 0.015
		0.84 0.12 0.04
		0.95 0.04 0.01
		0.8 0.15 0.05
		0.265 0.72 0.015
		0.69 0.23 0.08
		0.8 0.15 0.05
		0.6 0.15 0.25
		0.57 0.18 0.25
		0.4 0.3 0.3
		0 0.1 0.9
		0.99 0.01 0
		0.954545 0.040404 0.00505051
		0.99 0.01 0
		0.99 0.01 0
		0.95 0.04 0.01
		0.915 0.07 0.015
		0.84 0.12 0.04
		0.95 0.04 0.01
		0.8 0.15 0.05
		0.265 0.72 0.015
		0.69 0.23 0.08
		0.8 0.15 0.05
		0.6 0.15 0.25
		0.57 0.18 0.25
		0.4 0.3 0.3
		0 0.1 0.9
		0.99 0.01 0
		0.954545 0.040404 0.00505051
		0.99 0.01 0
		0.99 0.01 0
		0.95 0.04 0.01
		0.915 0.07 0.015
		0.84 0.12 0.04
		0.95 0.04 0.01
		0.8 0.15 0.05
		0.265 0.72 0.015
		0.69 0.23 0.08
		0.8 0.15 0.05
		0.6 0.15 0.25
		0.57 0.18 0.25
		0.4 0.3 0.3
		0 0.1 0.9
		0.99 0.01 0
		0.954545 0.040404 0.00505051
		0.99 0.01 0
		0.99 0.01 0
		0.95 0.04 0.01
		0.915 0.07 0.015
		0.84 0.12 0.04
		0.95 0.04 0.01
		0.8 0.15 0.05
		0.265 0.72 0.015
		0.69 0.23 0.08
		0.8 0.15 0.05
		0.6 0.15 0.25
		0.57 0.18 0.25
		0.4 0.3 0.3
		0 0.1 0.9
		0.99 0.01 0
		0.954545 0.040404 0.00505051
		0.99 0.01 0
		0.99 0.01 0
		0.95 0.04 0.01
		0.915 0.07 0.015
		0.84 0.12 0.04
		0.95 0.04 0.01
		0.8 0.15 0.05
		0.265 0.72 0.015
		0.69 0.23 0.08
		0.8 0.15 0.05
		0.6 0.15 0.25
		0.57 0.18 0.25
		0.4 0.3 0.3
		0 0.1 0.9
		0.99 0.01 0
		0.954545 0.040404 0.00505051
		0.99 0.01 0
		0.99 0.01 0
		0.95 0.04 0.01
		0.915 0.07 0.015
		0.84 0.12 0.04
		0.95 0.04 0.01
		0.8 0.15 0.05
		0.265 0.72 0.015
		0.69 0.23 0.08
		0.8 0.15 0.05
		0.6 0.15 0.25
		0.57 0.18 0.25
		0.4 0.3 0.3
		0 0.1 0.9
		0.99 0.01 0
		0.954545 0.040404 0.00505051
		0.99 0.01 0
		0.99 0.01 0
		0.95 0.04 0.01
		0.915 0.07 0.015
		0.84 0.12 0.04
		0.95 0.04 0.01
		0.8 0.15 0.05
		0.265 0.72 0.015
		0.69 0.23 0.08
		0.8 0.15 0.05
		0.6 0.15 0.25
		0.57 0.18 0.25
		0.4 0.3 0.3
		0 0.1 0.9
		0.99 0.01 0
		0.954545 0.040404 0.00505051
		0.99 0.01 0
		0.99 0.01 0
		0.95 0.04 0.01
		0.915 0.07 0.015
		0.84 0.12 0.04
		0.95 0.04 0.01
		0.8 0.15 0.05
		0.265 0.72 0.015
		0.69 0.23 0.08
		0.8 0.15 0.05
		0.6 0.15 0.25
		0.57 0.18 0.25
		0.4 0.3 0.3
		0 0.1 0.9
		0.99 0.01 0
		0.954545 0.040404 0.00505051
		0.99 0.01 0
		0.99 0.01 0
		0.95 0.04 0.01
		0.915 0.07 0.015
		0.84 0.12 0.04
		0.95 0.04 0.01
		0.8 0.15 0.05
		0.265 0.72 0.015
		0.69 0.23 0.08
		0.8 0.15 0.05
		0.6 0.15 0.25
		0.57 0.18 0.25
		0.4 0.3 0.3
		0 0.1 0.9
		0.99 0.01 0
		0.954545 0.040404 0.00505051
		0.99 0.01 0
		0.99 0.01 0
		0.95 0.04 0.01
		0.915 0.07 0.015
		0.84 0.12 0.04
		0.95 0.04 0.01
		0.8 0.15 0.05
		0.265 0.72 0.015
		0.69 0.23 0.08
		0.8 0.15 0.05
		0.6 0.15 0.25
		0.57 0.18 0.25
		0.4 0.3 0.3
		0 0.1 0.9
		0.99 0.01 0
		0.954545 0.040404 0.00505051
		0.99 0.01 0
		0.99 0.01 0
		0.95 0.04 0.01
		0.915 0.07 0.015
		0.84 0.12 0.04
		0.95 0.04 0.01
		0.8 0.15 0.05
		0.265 0.72 0.015
		0.69 0.23 0.08
		0.8 0.15 0.05
		0.6 0.15 0.25
		0.57 0.18 0.25
		0.4 0.3 0.3
		0 0.1 0.9
		0.99 0.01 0
		0.954545 0.040404 0.00505051
		0.99 0.01 0
		0.99 0.01 0
		0.95 0.04 0.01
		0.915 0.07 0.015
		0.84 0.12 0.04
		0.95 0.04 0.01
		0.8 0.15 0.05
		0.265 0.72 0.015
		0.69 0.23 0.08
		0.8 0.15 0.05
		0.6 0.15 0.25
		0.57 0.18 0.25
		0.4 0.3 0.3
		0 0.1 0.9
		0.99 0.01 0
		0.954545 0.040404 0.00505051
		0.99 0.01 0
		0.99 0.01 0
		0.95 0.04 0.01
		0.915 0.07 0.015
		0.84 0.12 0.04
		0.95 0.04 0.01
		0.8 0.15 0.05
		0.265 0.72 0.015
		0.69 0.23 0.08
		0.8 0.15 0.05
		0.6 0.15 0.25
		0.57 0.18 0.25
		0.4 0.3 0.3
		0 0.1 0.9
		0.99 0.01 0
		0.954545 0.040404 0.00505051
		0.99 0.01 0
		0.99 0.01 0
		0.95 0.04 0.01
		0.915 0.07 0.015
		0.84 0.12 0.04
		0.95 0.04 0.01
		0.8 0.15 0.05
		0.265 0.72 0.015
		0.69 0.23 0.08
		0.8 0.15 0.05
		0.6 0.15 0.25
		0.57 0.18 0.25
		0.4 0.3 0.3
		0 0.1 0.9
		0.99 0.01 0
		0.954545 0.040404 0.00505051
		0.99 0.01 0
		0.99 0.01 0
		0.95 0.04 0.01
		0.915 0.07 0.015
		0.84 0.12 0.04
		0.95 0.04 0.01
		0.8 0.15 0.05
		0.265 0.72 0.015
		0.69 0.23 0.08
		0.8 0.15 0.05
		0.6 0.15 0.25
		0.57 0.18 0.25
		0.4 0.3 0.3
		0 0.1 0.9
		0.95 0.05 0
		0.915423 0.079602 0.00497512
		0.8 0.2 0
		0.8 0.2 0
		0.904762 0.0857143 0.00952381
		0.885 0.1 0.015
		0.79 0.17 0.04
		0.904762 0.0857143 0.00952381
		0.75 0.2 0.05
		0.755 0.23 0.015
		0.64 0.28 0.08
		0.75 0.2 0.05
		0.55 0.2 0.25
		0.52 0.23 0.25
		0.35 0.35 0.3
		0 0.1 0.9
		0.95 0.05 0
		0.915423 0.079602 0.00497512
		0.8 0.2 0
		0.8 0.2 0
		0.904762 0.0857143 0.00952381
		0.885 0.1 0.015
		0.79 0.17 0.04
		0.904762 0.0857143 0.00952381
		0.75 0.2 0.05
		0.755 0.23 0.015
		0.64 0.28 0.08
		0.75 0.2 0.05
		0.55 0.2 0.25
		0.52 0.23 0.25
		0.35 0.35 0.3
		0 0.1 0.9
		0.99 0.01 0
		0.954545 0.040404 0.00505051
		0.99 0.01 0
		0.99 0.01 0
		0.95 0.04 0.01
		0.915 0.07 0.015
		0.84 0.12 0.04
		0.95 0.04 0.01
		0.8 0.15 0.05
		0.265 0.72 0.015
		0.69 0.23 0.08
		0.8 0.15 0.05
		0.6 0.15 0.25
		0.57 0.18 0.25
		0.4 0.3 0.3
		0 0.1 0.9
		0.99 0.01 0
		0.954545 0.040404 0.00505051
		0.99 0.01 0
		0.99 0.01 0
		0.95 0.04 0.01
		0.915 0.07 0.015
		0.84 0.12 0.04
		0.95 0.04 0.01
		0.8 0.15 0.05
		0.265 0.72 0.015
		0.69 0.23 0.08
		0.8 0.15 0.05
		0.6 0.15 0.25
		0.57 0.18 0.25
		0.4 0.3 0.3
		0 0.1 0.9
		0.99 0.01 0
		0.954545 0.040404 0.00505051
		0.99 0.01 0
		0.99 0.01 0
		0.95 0.04 0.01
		0.915 0.07 0.015
		0.84 0.12 0.04
		0.95 0.04 0.01
		0.8 0.15 0.05
		0.265 0.72 0.015
		0.69 0.23 0.08
		0.8 0.15 0.05
		0.6 0.15 0.25
		0.57 0.18 0.25
		0.4 0.3 0.3
		0 0.1 0.9
		0.99 0.01 0
		0.954545 0.040404 0.00505051
		0.99 0.01 0
		0.99 0.01 0
		0.95 0.04 0.01
		0.915 0.07 0.015
		0.84 0.12 0.04
		0.95 0.04 0.01
		0.8 0.15 0.05
		0.265 0.72 0.015
		0.69 0.23 0.08
		0.8 0.15 0.05
		0.6 0.15 0.25
		0.57 0.18 0.25
		0.4 0.3 0.3
		0 0.1 0.9
		0.99 0.01 0
		0.954545 0.040404 0.00505051
		0.99 0.01 0
		0.99 0.01 0
		0.95 0.04 0.01
		0.915 0.07 0.015
		0.84 0.12 0.04
		0.95 0.04 0.01
		0.8 0.15 0.05
		0.265 0.72 0.015
		0.69 0.23 0.08
		0.8 0.15 0.05
		0.6 0.15 0.25
		0.57 0.18 0.25
		0.4 0.3 0.3
		0 0.1 0.9
		0.99 0.01 0
		0.954545 0.040404 0.00505051
		0.99 0.01 0
		0.99 0.01 0
		0.95 0.04 0.01
		0.915 0.07 0.015
		0.84 0.12 0.04
		0.95 0.04 0.01
		0.8 0.15 0.05
		0.265 0.72 0.015
		0.69 0.23 0.08
		0.8 0.15 0.05
		0.6 0.15 0.25
		0.57 0.18 0.25
		0.4 0.3 0.3
		0 0.1 0.9
		0.99 0.01 0
		0.954545 0.040404 0.00505051
		0.99 0.01 0
		0.99 0.01 0
		0.95 0.04 0.01
		0.915 0.07 0.015
		0.84 0.12 0.04
		0.95 0.04 0.01
		0.8 0.15 0.05
		0.265 0.72 0.015
		0.69 0.23 0.08
		0.8 0.15 0.05
		0.6 0.15 0.25
		0.57 0.18 0.25
		0.4 0.3 0.3
		0 0.1 0.9
		0.99 0.01 0
		0.954545 0.040404 0.00505051
		0.99 0.01 0
		0.99 0.01 0
		0.95 0.04 0.01
		0.915 0.07 0.015
		0.84 0.12 0.04
		0.95 0.04 0.01
		0.8 0.15 0.05
		0.265 0.72 0.015
		0.69 0.23 0.08
		0.8 0.15 0.05
		0.6 0.15 0.25
		0.57 0.18 0.25
		0.4 0.3 0.3
		0 0.1 0.9
		0.99 0.01 0
		0.954545 0.040404 0.00505051
		0.99 0.01 0
		0.99 0.01 0
		0.95 0.04 0.01
		0.915 0.07 0.015
		0.84 0.12 0.04
		0.95 0.04 0.01
		0.8 0.15 0.05
		0.265 0.72 0.015
		0.69 0.23 0.08
		0.8 0.15 0.05
		0.6 0.15 0.25
		0.57 0.18 0.25
		0.4 0.3 0.3
		0 0.1 0.9
		0.95 0.05 0
		0.915423 0.079602 0.00497512
		0.8 0.2 0
		0.8 0.2 0
		0.904762 0.0857143 0.00952381
		0.885 0.1 0.015
		0.79 0.17 0.04
		0.904762 0.0857143 0.00952381
		0.75 0.2 0.05
		0.755 0.23 0.015
		0.64 0.28 0.08
		0.75 0.2 0.05
		0.55 0.2 0.25
		0.52 0.23 0.25
		0.35 0.35 0.3
		0 0.1 0.9
		0.99 0.01 0
		0.954545 0.040404 0.00505051
		0.99 0.01 0
		0.99 0.01 0
		0.95 0.04 0.01
		0.915 0.07 0.015
		0.84 0.12 0.04
		0.95 0.04 0.01
		0.8 0.15 0.05
		0.265 0.72 0.015
		0.69 0.23 0.08
		0.8 0.15 0.05
		0.6 0.15 0.25
		0.57 0.18 0.25
		0.4 0.3 0.3
		0 0.1 0.9
		0.95 0.05 0
		0.915423 0.079602 0.00497512
		0.8 0.2 0
		0.8 0.2 0
		0.904762 0.0857143 0.00952381
		0.885 0.1 0.015
		0.79 0.17 0.04
		0.904762 0.0857143 0.00952381
		0.75 0.2 0.05
		0.755 0.23 0.015
		0.64 0.28 0.08
		0.75 0.2 0.05
		0.55 0.2 0.25
		0.52 0.23 0.25
		0.35 0.35 0.3
		0 0.1 0.9
		0.99 0.01 0
		0.954545 0.040404 0.00505051
		0.99 0.01 0
		0.99 0.01 0
		0.95 0.04 0.01
		0.915 0.07 0.015
		0.84 0.12 0.04
		0.95 0.04 0.01
		0.8 0.15 0.05
		0.265 0.72 0.015
		0.69 0.23 0.08
		0.8 0.15 0.05
		0.6 0.15 0.25
		0.57 0.18 0.25
		0.4 0.3 0.3
		0 0.1 0.9
		0.95 0.05 0
		0.915423 0.079602 0.00497512
		0.8 0.2 0
		0.8 0.2 0
		0.904762 0.0857143 0.00952381
		0.885 0.1 0.015
		0.79 0.17 0.04
		0.904762 0.0857143 0.00952381
		0.75 0.2 0.05
		0.755 0.23 0.015
		0.64 0.28 0.08
		0.75 0.2 0.05
		0.55 0.2 0.25
		0.52 0.23 0.25
		0.35 0.35 0.3
		0 0.1 0.9
		0.99 0.01 0
		0.954545 0.040404 0.00505051
		0.99 0.01 0
		0.99 0.01 0
		0.95 0.04 0.01
		0.915 0.07 0.015
		0.84 0.12 0.04
		0.95 0.04 0.01
		0.8 0.15 0.05
		0.265 0.72 0.015
		0.69 0.23 0.08
		0.8 0.15 0.05
		0.6 0.15 0.25
		0.57 0.18 0.25
		0.4 0.3 0.3
		0 0.1 0.9
	</TABLE>
</DEFINITION>
<DEFINITION>
	<FOR>F9</FOR>
	<GIVEN>Fault</GIVEN>
	<TABLE>
		0.899101 0.0999001 0.000999 0 0
		0.899101 0.0999001 0.000999 0 0
		0.899101 0.0999001 0.000999 0 0
		0.74184 0.24728 0.0098912 0.00098912 0
		0.899101 0.0999001 0.000999 0 0
		0.899101 0.0999001 0.000999 0 0
		0.899101 0.0999001 0.000999 0 0
		0.899101 0.0999001 0.000999 0 0
		0.899101 0.0999001 0.000999 0 0
		0.899101 0.0999001 0.000999 0 0
		0.689311 0.24975 0.04995 0.00999001 0.000999
		0.899101 0.0999001 0.000999 0 0
		0.899101 0.0999001 0.000999 0 0
		0.899101 0.0999001 0.000999 0 0
		0.74184 0.24728 0.0098912 0.00098912 0
		0.74184 0.24728 0.0098912 0.00098912 0
		0.899101 0.0999001 0.000999 0 0
		0.899101 0.0999001 0.000999 0 0
		0.899101 0.0999001 0.000999 0 0
		0.899101 0.0999001 0.000999 0 0
		0.899101 0.0999001 0.000999 0 0
		0.899101 0.0999001 0.000999 0 0
		0.899101 0.0999001 0.000999 0 0
		0.74184 0.24728 0.0098912 0.00098912 0
		0.899101 0.0999001 0.000999 0 0
		0.899101 0.0999001 0.000999 0 0
		0.899101 0.0999001 0.000999 0 0
		0.899101 0.0999001 0.000999 0 0
		0.899101 0.0999001 0.000999 0 0
		0.899101 0.0999001 0.000999 0 0
		0.899101 0.0999001 0.000999 0 0
		0.899101 0.0999001 0.000999 0 0
		0.899101 0.0999001 0.000999 0 0
		0.899101 0.0999001 0.000999 0 0
		0.899101 0.0999001 0.000999 0 0
		0.899101 0.0999001 0.000999 0 0
		0.899101 0.0999001 0.000999 0 0
		0.899101 0.0999001 0.000999 0 0
		0.899101 0.0999001 0.000999 0 0
		0.899101 0.0999001 0.000999 0 0
		0.899101 0.0999001 0.000999 0 0
		0.868201 0.0732218 0.0523013 0.00523013 0.00104603
		0.899101 0.0999001 0.000999 0 0
		0.65 0.15 0.1 0.05 0.05
		0.59 0.15 0.12 0.07 0.07
		0.68 0.1 0.1 0.07 0.05
		0.899101 0.0999001 0.000999 0 0
		0.68 0.1 0.1 0.07 0.05
		0.7 0.05 0.05 0.1 0.1
		0.000999 0.00999001 0.04995 0.1998 0.739261
		0.68 0.1 0.1 0.07 0.05
		0.899101 0.0999001 0.000999 0 0
		0.899101 0.0999001 0.000999 0 0
		0.899101 0.0999001 0.000999 0 0
		0.68 0.1 0.1 0.07 0.05
		0.899101 0.0999001 0.000999 0 0
		0.899101 0.0999001 0.000999 0 0
		0.899101 0.0999001 0.000999 0 0
		0.899101 0.0999001 0.000999 0 0
		0.899101 0.0999001 0.000999 0 0
		0.899101 0.0999001 0.000999 0 0
		0.899101 0.0999001 0.000999 0 0
		0.68 0.1 0.1 0.07 0.05
	</TABLE>
</DEFINITION>
<DEFINITION>
	<FOR>F10</FOR>
	<GIVEN>Fault</GIVEN>
	<TABLE>
		1 0
		1 0
		1 0
		1 0
		1 0
		1 0
		1 0
		1 0
		1 0
		1 0
		1 0
		1 0
		1 0
		1 0
		1 0
		1 0
		1 0
		1 0
		1 0
		1 0
		1 0
		1 0
		1 0
		1 0
		1 0
		1 0
		1 0
		1 0
		1 0
		1 0
		1 0
		1 0
		1 0
		1 0
		1 0
		1 0
		1 0
		1 0
		1 0
		1 0
		1 0
		1 0
		1 0
		1 0
		1 0
		1 0
		1 0
		1 0
		1 0
		1 0
		1 0
		1 0
		1 0
		1 0
		1 0
		1 0
		0 1
		1 0
		1 0
		1 0
		1 0
		1 0
		1 0
	</TABLE>
</DEFINITION>
<DEFINITION>
	<FOR>F55</FOR>
	<GIVEN>Fault</GIVEN>
	<TABLE>
		0.999 0.001 0 0
		0.999 0.001 0 0
		0.999 0.001 0 0
		0.999 0.001 0 0
		0.999 0.001 0 0
		0.999 0.001 0 0
		0.999 0.001 0 0
		0.999 0.001 0 0
		0.999 0.001 0 0
		0.999 0.001 0 0
		0.98 0.02 0 0
		0.999 0.001 0 0
		0.999 0.001 0 0
		0.999 0.001 0 0
		0.999 0.001 0 0
		0.999 0.001 0 0
		0.999 0.001 0 0
		0.999 0.001 0 0
		0.999 0.001 0 0
		0.999 0.001 0 0
		0.999 0.001 0 0
		0.999 0.001 0 0
		0.999 0.001 0 0
		0.98 0.02 0 0
		0.999 0.001 0 0
		0.8 0.19 0.01 0
		0.8 0.19 0.01 0
		0.3 0.49 0.2 0.01
		0.3 0.49 0.2 0.01
		0.3 0.49 0.2 0.01
		0.39 0.5 0.1 0.01
		0.699301 0.24975 0.04995 0.000999
		0.7 0.15 0.1 0.05
		0.7 0.15 0.1 0.05
		0.999 0.001 0 0
		0.999 0.001 0 0
		0.999 0.001 0 0
		0.999 0.001 0 0
		0.999 0.001 0 0
		0.999 0.001 0 0
		0.999 0.001 0 0
		0.999 0.001 0 0
		0.999 0.001 0 0
		0.999 0.001 0 0
		0.9 0.09 0.01 0
		0.999 0.001 0 0
		0.999 0.001 0 0
		0.9 0.09 0.01 0
		0.999 0.001 0 0
		0.999 0.001 0 0
		0.999 0.001 0 0
		0.999 0.001 0 0
		0.79 0.15 0.05 0.01
		0.999 0.001 0 0
		0.999 0.001 0 0
		0.999 0.001 0 0
		0.999 0.001 0 0
		0.999 0.001 0 0
		0.999 0.001 0 0
		0.999 0.001 0 0
		0.999 0.001 0 0
		0.999 0.001 0 0
		0.999 0.001 0 0
	</TABLE>
</DEFINITION>
<DEFINITION>
	<FOR>F52</FOR>
	<GIVEN>Fault</GIVEN>
	<GIVEN>F55</GIVEN>
	<TABLE>
		0.9999 0.0001 0 0
		0.9999 0.0001 0 0
		0.25 0.25 0.25 0.25
		0.25 0.25 0.25 0.25
		0.98 0.02 0 0
		0.98 0.02 0 0
		0.97 0.03 0 0
		0.25 0.25 0.25 0.25
		0.9999 0.0001 0 0
		0.9999 0.0001 0 0
		0.25 0.25 0.25 0.25
		0.25 0.25 0.25 0.25
		0.9999 0.0001 0 0
		0.9999 0.0001 0 0
		0.25 0.25 0.25 0.25
		0.25 0.25 0.25 0.25
		0.9999 0.0001 0 0
		0.9999 0.0001 0 0
		0.25 0.25 0.25 0.25
		0.25 0.25 0.25 0.25
		0.9999 0.0001 0 0
		0.9999 0.0001 0 0
		0.25 0.25 0.25 0.25
		0.25 0.25 0.25 0.25
		0.98 0.02 0 0
		0.98 0.02 0 0
		0.25 0.25 0.25 0.25
		0.25 0.25 0.25 0.25
		0.98 0.02 0 0
		0.98 0.02 0 0
		0.25 0.25 0.25 0.25
		0.25 0.25 0.25 0.25
		0.9999 0.0001 0 0
		0.9999 0.0001 0 0
		0.25 0.25 0.25 0.25
		0.25 0.25 0.25 0.25
		0.9999 0.0001 0 0
		0.9999 0.0001 0 0
		0.25 0.25 0.25 0.25
		0.25 0.25 0.25 0.25
		0.949051 0.04995 0.000999 0
		0.949051 0.04995 0.000999 0
		0.25 0.25 0.25 0.25
		0.25 0.25 0.25 0.25
		0.9999 0.0001 0 0
		0.9999 0.0001 0 0
		0.25 0.25 0.25 0.25
		0.25 0.25 0.25 0.25
		0.9999 0.0001 0 0
		0.9999 0.0001 0 0
		0.25 0.25 0.25 0.25
		0.25 0.25 0.25 0.25
		0.9999 0.0001 0 0
		0.9999 0.0001 0 0
		0.25 0.25 0.25 0.25
		0.25 0.25 0.25 0.25
		0.99 0.01 0 0
		0.99 0.01 0 0
		0.25 0.25 0.25 0.25
		0.25 0.25 0.25 0.25
		0.99 0.01 0 0
		0.99 0.01 0 0
		0.25 0.25 0.25 0.25
		0.25 0.25 0.25 0.25
		0.9999 0.0001 0 0
		0.9999 0.0001 0 0
		0.25 0.25 0.25 0.25
		0.25 0.25 0.25 0.25
		0.9999 0.0001 0 0
		0.9999 0.0001 0 0
		0.25 0.25 0.25 0.25
		0.25 0.25 0.25 0.25
		0.9999 0.0001 0 0
		0.9999 0.0001 0 0
		0.25 0.25 0.25 0.25
		0.25 0.25 0.25 0.25
		0.9999 0.0001 0 0
		0.9999 0.0001 0 0
		0.25 0.25 0.25 0.25
		0.25 0.25 0.25 0.25
		0.9999 0.0001 0 0
		0.9999 0.0001 0 0
		0.25 0.25 0.25 0.25
		0.25 0.25 0.25 0.25
		0.9999 0.0001 0 0
		0.9999 0.0001 0 0
		0.25 0.25 0.25 0.25
		0.25 0.25 0.25 0.25
		0.9999 0.0001 0 0
		0.9999 0.0001 0 0
		0.25 0.25 0.25 0.25
		0.25 0.25 0.25 0.25
		0.949051 0.04995 0.000999 0
		0.949051 0.04995 0.000999 0
		0.25 0.25 0.25 0.25
		0.25 0.25 0.25 0.25
		0.9999 0.0001 0 0
		0.9999 0.0001 0 0
		0.25 0.25 0.25 0.25
		0.25 0.25 0.25 0.25
		0 0.99 0.01 0
		0 0.99 0.01 0
		0 0.99 0.01 0
		0.25 0.25 0.25 0.25
		0 0.99 0.01 0
		0 0.99 0.01 0
		0 0.99 0.01 0
		0.25 0.25 0.25 0.25
		0.000999 0.04995 0.849151 0.0999001
		0.000999 0.04995 0.849151 0.0999001
		0 0.02 0.83 0.15
		0 0.000999 0.749251 0.24975
		0.000999 0.04995 0.849151 0.0999001
		0.000999 0.04995 0.849151 0.0999001
		0 0.02 0.83 0.15
		0 0.000999 0.749251 0.24975
		0.000999 0.04995 0.849151 0.0999001
		0.000999 0.04995 0.849151 0.0999001
		0 0.02 0.83 0.15
		0 0.000999 0.749251 0.24975
		0 0.05 0.8 0.15
		0 0.05 0.8 0.15
		0 0.01 0.84 0.15
		0 0 0.65 0.35
		0.000999 0.1998 0.699301 0.0999001
		0.000999 0.1998 0.699301 0.0999001
		0 0.13 0.75 0.12
		0 0.05 0.8 0.15
		0 0.05 0.15 0.8
		0 0.05 0.15 0.8
		0 0.0192308 0.144231 0.836538
		0 0.000999 0.0999001 0.899101
		0 0.01 0.2 0.79
		0 0.01 0.2 0.79
		0 0 0.15 0.85
		0 9.999e-05 0.049995 0.949905
		0.9999 0.0001 0 0
		0.9999 0.0001 0 0
		0.25 0.25 0.25 0.25
		0.25 0.25 0.25 0.25
		0.9999 0.0001 0 0
		0.9999 0.0001 0 0
		0.25 0.25 0.25 0.25
		0.25 0.25 0.25 0.25
		0.9999 0.0001 0 0
		0.9999 0.0001 0 0
		0.25 0.25 0.25 0.25
		0.25 0.25 0.25 0.25
		0.9999 0.0001 0 0
		0.9999 0.0001 0 0
		0.25 0.25 0.25 0.25
		0.25 0.25 0.25 0.25
		0.9999 0.0001 0 0
		0.9999 0.0001 0 0
		0.25 0.25 0.25 0.25
		0.25 0.25 0.25 0.25
		0.9999 0.0001 0 0
		0.9999 0.0001 0 0
		0.25 0.25 0.25 0.25
		0.25 0.25 0.25 0.25
		0.9999 0.0001 0 0
		0.9999 0.0001 0 0
		0.25 0.25 0.25 0.25
		0.25 0.25 0.25 0.25
		0.9999 0.0001 0 0
		0.9999 0.0001 0 0
		0.25 0.25 0.25 0.25
		0.25 0.25 0.25 0.25
		0.9999 0.0001 0 0
		0.9999 0.0001 0 0
		0.25 0.25 0.25 0.25
		0.25 0.25 0.25 0.25
		0.98 0.02 0 0
		0.98 0.02 0 0
		0.97 0.03 0 0
		0.25 0.25 0.25 0.25
		0.91 0.05 0.03 0.01
		0.91 0.05 0.03 0.01
		0.86 0.07 0.05 0.02
		0.25 0.25 0.25 0.25
		0.98 0.02 0 0
		0.98 0.02 0 0
		0.97 0.03 0 0
		0.25 0.25 0.25 0.25
		0.98 0.02 0 0
		0.98 0.02 0 0
		0.97 0.03 0 0
		0.25 0.25 0.25 0.25
		0.98 0.02 0 0
		0.98 0.02 0 0
		0.97 0.03 0 0
		0.25 0.25 0.25 0.25
		0.9999 0.0001 0 0
		0.9999 0.0001 0 0
		0.25 0.25 0.25 0.25
		0.25 0.25 0.25 0.25
		0.9999 0.0001 0 0
		0.9999 0.0001 0 0
		0.25 0.25 0.25 0.25
		0.25 0.25 0.25 0.25
		0.98 0.02 0 0
		0.98 0.02 0 0
		0.97 0.03 0 0
		0.25 0.25 0.25 0.25
		0.98 0.02 0 0
		0.98 0.02 0 0
		0.97 0.03 0 0
		0.25 0.25 0.25 0.25
		0.2 0.4 0.3 0.1
		0.2 0.4 0.3 0.1
		0.1 0.3 0.4 0.2
		0 0.000999 0.599401 0.3996
		0.9999 0.0001 0 0
		0.9999 0.0001 0 0
		0.25 0.25 0.25 0.25
		0.25 0.25 0.25 0.25
		0.9999 0.0001 0 0
		0.9999 0.0001 0 0
		0.25 0.25 0.25 0.25
		0.25 0.25 0.25 0.25
		0.9999 0.0001 0 0
		0.9999 0.0001 0 0
		0.25 0.25 0.25 0.25
		0.25 0.25 0.25 0.25
		0.9999 0.0001 0 0
		0.9999 0.0001 0 0
		0.25 0.25 0.25 0.25
		0.25 0.25 0.25 0.25
		0.9999 0.0001 0 0
		0.9999 0.0001 0 0
		0.25 0.25 0.25 0.25
		0.25 0.25 0.25 0.25
		0.8 0.15 0.04 0.01
		0.8 0.15 0.04 0.01
		0.6 0.25 0.1 0.05
		0.25 0.25 0.25 0.25
		0.9999 0.0001 0 0
		0.9999 0.0001 0 0
		0.25 0.25 0.25 0.25
		0.25 0.25 0.25 0.25
		0.9999 0.0001 0 0
		0.9999 0.0001 0 0
		0.25 0.25 0.25 0.25
		0.25 0.25 0.25 0.25
		0.9999 0.0001 0 0
		0.9999 0.0001 0 0
		0.25 0.25 0.25 0.25
		0.25 0.25 0.25 0.25
		0.98 0.02 0 0
		0.98 0.02 0 0
		0.97 0.03 0 0
		0.25 0.25 0.25 0.25
	</TABLE>
</DEFINITION>
<DEFINITION>
	<FOR>F11</FOR>
	<GIVEN>Fault</GIVEN>
	<GIVEN>F52</GIVEN>
	<TABLE>
		1 0 0 0 0
		1 0 0 0 0
		0.2 0.2 0.2 0.2 0.2
		0.2 0.2 0.2 0.2 0.2
		1 0 0 0 0
		1 0 0 0 0
		0.2 0.2 0.2 0.2 0.2
		0.2 0.2 0.2 0.2 0.2
		1 0 0 0 0
		1 0 0 0 0
		0.2 0.2 0.2 0.2 0.2
		0.2 0.2 0.2 0.2 0.2
		1 0 0 0 0
		1 0 0 0 0
		0.2 0.2 0.2 0.2 0.2
		0.2 0.2 0.2 0.2 0.2
		1 0 0 0 0
		1 0 0 0 0
		0.2 0.2 0.2 0.2 0.2
		0.2 0.2 0.2 0.2 0.2
		1 0 0 0 0
		1 0 0 0 0
		0.2 0.2 0.2 0.2 0.2
		0.2 0.2 0.2 0.2 0.2
		1 0 0 0 0
		1 0 0 0 0
		0.999 0.001 0 0 0
		0.2 0.2 0.2 0.2 0.2
		1 0 0 0 0
		1 0 0 0 0
		0.999 0.001 0 0 0
		0.2 0.2 0.2 0.2 0.2
		1 0 0 0 0
		1 0 0 0 0
		0.2 0.2 0.2 0.2 0.2
		0.2 0.2 0.2 0.2 0.2
		1 0 0 0 0
		1 0 0 0 0
		0.2 0.2 0.2 0.2 0.2
		0.2 0.2 0.2 0.2 0.2
		0.999 0.001 0 0 0
		0.999 0.001 0 0 0
		0.980883 0.0190171 0.00010009 0 0
		0.2 0.2 0.2 0.2 0.2
		1 0 0 0 0
		1 0 0 0 0
		0.2 0.2 0.2 0.2 0.2
		0.2 0.2 0.2 0.2 0.2
		1 0 0 0 0
		1 0 0 0 0
		0.2 0.2 0.2 0.2 0.2
		0.2 0.2 0.2 0.2 0.2
		1 0 0 0 0
		1 0 0 0 0
		0.2 0.2 0.2 0.2 0.2
		0.2 0.2 0.2 0.2 0.2
		1 0 0 0 0
		1 0 0 0 0
		0.2 0.2 0.2 0.2 0.2
		0.2 0.2 0.2 0.2 0.2
		1 0 0 0 0
		1 0 0 0 0
		0.2 0.2 0.2 0.2 0.2
		0.2 0.2 0.2 0.2 0.2
		1 0 0 0 0
		1 0 0 0 0
		0.2 0.2 0.2 0.2 0.2
		0.2 0.2 0.2 0.2 0.2
		1 0 0 0 0
		1 0 0 0 0
		0.2 0.2 0.2 0.2 0.2
		0.2 0.2 0.2 0.2 0.2
		1 0 0 0 0
		1 0 0 0 0
		0.2 0.2 0.2 0.2 0.2
		0.2 0.2 0.2 0.2 0.2
		1 0 0 0 0
		1 0 0 0 0
		0.2 0.2 0.2 0.2 0.2
		0.2 0.2 0.2 0.2 0.2
		1 0 0 0 0
		1 0 0 0 0
		0.2 0.2 0.2 0.2 0.2
		0.2 0.2 0.2 0.2 0.2
		1 0 0 0 0
		1 0 0 0 0
		0.2 0.2 0.2 0.2 0.2
		0.2 0.2 0.2 0.2 0.2
		1 0 0 0 0
		1 0 0 0 0
		0.2 0.2 0.2 0.2 0.2
		0.2 0.2 0.2 0.2 0.2
		0.999 0.001 0 0 0
		0.999 0.001 0 0 0
		0.980883 0.0190171 0.00010009 0 0
		0.2 0.2 0.2 0.2 0.2
		1 0 0 0 0
		1 0 0 0 0
		0.2 0.2 0.2 0.2 0.2
		0.2 0.2 0.2 0.2 0.2
		0.2 0.2 0.2 0.2 0.2
		0 1 0 0 0
		0 1 0 0 0
		0.2 0.2 0.2 0.2 0.2
		0.2 0.2 0.2 0.2 0.2
		0 1 0 0 0
		0 1 0 0 0
		0.2 0.2 0.2 0.2 0.2
		0 0.15 0.58 0.25 0.02
		0 0.15 0.58 0.25 0.02
		0 0.01 0.6 0.35 0.04
		0 0.01 0.44 0.45 0.1
		0 0.15 0.58 0.25 0.02
		0 0.15 0.58 0.25 0.02
		0 0.01 0.6 0.35 0.04
		0 0.01 0.44 0.45 0.1
		0 0.15 0.58 0.25 0.02
		0 0.15 0.58 0.25 0.02
		0 0.01 0.6 0.35 0.04
		0 0.01 0.44 0.45 0.1
		0.2 0.2 0.2 0.2 0.2
		0 0 0.63 0.35 0.02
		0 0.01 0.69 0.3 0
		0 0.01 0.59 0.4 0
		0 0.3 0.6 0.1 0
		0 0.25 0.6 0.15 0
		0 0.01 0.79 0.2 0
		0 0.01 0.69 0.2 0.1
		0.2 0.2 0.2 0.2 0.2
		0 0.02 0.62 0.35 0.01
		0 0.02 0.62 0.35 0.01
		0 0 0.53 0.45 0.02
		0.2 0.2 0.2 0.2 0.2
		0 0 0.01 0.59 0.4
		0 0 0.01 0.4 0.59
		0 0 0.00990099 0.247525 0.742574
		1 0 0 0 0
		1 0 0 0 0
		0.2 0.2 0.2 0.2 0.2
		0.2 0.2 0.2 0.2 0.2
		1 0 0 0 0
		1 0 0 0 0
		0.2 0.2 0.2 0.2 0.2
		0.2 0.2 0.2 0.2 0.2
		1 0 0 0 0
		1 0 0 0 0
		0.2 0.2 0.2 0.2 0.2
		0.2 0.2 0.2 0.2 0.2
		1 0 0 0 0
		1 0 0 0 0
		0.2 0.2 0.2 0.2 0.2
		0.2 0.2 0.2 0.2 0.2
		1 0 0 0 0
		1 0 0 0 0
		0.2 0.2 0.2 0.2 0.2
		0.2 0.2 0.2 0.2 0.2
		1 0 0 0 0
		1 0 0 0 0
		0.2 0.2 0.2 0.2 0.2
		0.2 0.2 0.2 0.2 0.2
		1 0 0 0 0
		1 0 0 0 0
		0.2 0.2 0.2 0.2 0.2
		0.2 0.2 0.2 0.2 0.2
		1 0 0 0 0
		1 0 0 0 0
		0.2 0.2 0.2 0.2 0.2
		0.2 0.2 0.2 0.2 0.2
		1 0 0 0 0
		1 0 0 0 0
		0.2 0.2 0.2 0.2 0.2
		0.2 0.2 0.2 0.2 0.2
		0.999 0.001 0 0 0
		0.999 0.001 0 0 0
		0.99 0.01 0 0 0
		0.2 0.2 0.2 0.2 0.2
		0.97 0.02 0.01 0 0
		0.97 0.02 0.01 0 0
		0.95 0.04 0.01 0 0
		0.2 0.2 0.2 0.2 0.2
		0.999 0.001 0 0 0
		0.999 0.001 0 0 0
		0.99 0.01 0 0 0
		0.2 0.2 0.2 0.2 0.2
		0.999 0.001 0 0 0
		0.999 0.001 0 0 0
		0.99 0.01 0 0 0
		0.2 0.2 0.2 0.2 0.2
		0.999 0.001 0 0 0
		0.999 0.001 0 0 0
		0.99 0.01 0 0 0
		0.2 0.2 0.2 0.2 0.2
		1 0 0 0 0
		1 0 0 0 0
		0.2 0.2 0.2 0.2 0.2
		0.2 0.2 0.2 0.2 0.2
		1 0 0 0 0
		1 0 0 0 0
		0.2 0.2 0.2 0.2 0.2
		0.2 0.2 0.2 0.2 0.2
		0.999 0.001 0 0 0
		0.999 0.001 0 0 0
		0.99 0.01 0 0 0
		0.2 0.2 0.2 0.2 0.2
		0.999 0.001 0 0 0
		0.999 0.001 0 0 0
		0.99 0.01 0 0 0
		0.2 0.2 0.2 0.2 0.2
		0.8 0.1 0.1 0 0
		0.8 0.1 0.1 0 0
		0.010101 0.909091 0.050505 0.030303 0
		0.000999 0.1998 0.699301 0.0799201 0.01998
		1 0 0 0 0
		1 0 0 0 0
		0.2 0.2 0.2 0.2 0.2
		0.2 0.2 0.2 0.2 0.2
		1 0 0 0 0
		1 0 0 0 0
		0.2 0.2 0.2 0.2 0.2
		0.2 0.2 0.2 0.2 0.2
		1 0 0 0 0
		1 0 0 0 0
		0.2 0.2 0.2 0.2 0.2
		0.2 0.2 0.2 0.2 0.2
		0.999001 0.000999 0 0 0
		0.999001 0.000999 0 0 0
		0.2 0.2 0.2 0.2 0.2
		0.2 0.2 0.2 0.2 0.2
		0.999001 0.000999 0 0 0
		0.999001 0.000999 0 0 0
		0.2 0.2 0.2 0.2 0.2
		0.2 0.2 0.2 0.2 0.2
		0.95 0.04 0.01 0 0
		0.95 0.04 0.01 0 0
		0.95 0.04 0.01 0 0
		0.2 0.2 0.2 0.2 0.2
		1 0 0 0 0
		1 0 0 0 0
		0.2 0.2 0.2 0.2 0.2
		0.2 0.2 0.2 0.2 0.2
		1 0 0 0 0
		1 0 0 0 0
		0.2 0.2 0.2 0.2 0.2
		0.2 0.2 0.2 0.2 0.2
		1 0 0 0 0
		1 0 0 0 0
		0.2 0.2 0.2 0.2 0.2
		0.2 0.2 0.2 0.2 0.2
		0.999 0.001 0 0 0
		0.999 0.001 0 0 0
		0.99 0.01 0 0 0
		0.2 0.2 0.2 0.2 0.2
	</TABLE>
</DEFINITION>
<DEFINITION>
	<FOR>F12</FOR>
	<GIVEN>Fault</GIVEN>
	<TABLE>
		1 0
		1 0
		1 0
		1 0
		1 0
		1 0
		1 0
		1 0
		1 0
		1 0
		1 0
		1 0
		1 0
		1 0
		1 0
		1 0
		1 0
		1 0
		1 0
		1 0
		1 0
		1 0
		1 0
		1 0
		1 0
		1 0
		1 0
		1 0
		1 0
		1 0
		1 0
		1 0
		1 0
		1 0
		1 0
		1 0
		1 0
		1 0
		1 0
		1 0
		1 0
		1 0
		1 0
		1 0
		1 0
		1 0
		1 0
		1 0
		1 0
		1 0
		1 0
		1 0
		1 0
		1 0
		1 0
		0.25 0.75
		1 0
		1 0
		1 0
		0.99 0.01
		1 0
		1 0
		1 0
	</TABLE>
</DEFINITION>
<DEFINITION>
	<FOR>F13</FOR>
	<GIVEN>Fault</GIVEN>
	<GIVEN>F8</GIVEN>
	<TABLE>
		1 0 0
		0.99999 1e-05 0
		0.9999 9.999e-05 0
		1 0 0
		0.99999 1e-05 0
		0.9999 9.999e-05 0
		1 0 0
		0.99999 1e-05 0
		0.9999 9.999e-05 0
		1 0 0
		0.99999 1e-05 0
		0.9999 9.999e-05 0
		1 0 0
		0.99999 1e-05 0
		0.9999 9.999e-05 0
		1 0 0
		0.99999 1e-05 0
		0.9999 9.999e-05 0
		1 0 0
		0.99999 1e-05 0
		0.9999 9.999e-05 0
		1 0 0
		0.99999 1e-05 0
		0.9999 9.999e-05 0
		1 0 0
		0.99999 1e-05 0
		0.9999 9.999e-05 0
		1 0 0
		0.99999 1e-05 0
		0.9999 9.999e-05 0
		1 0 0
		0.99999 1e-05 0
		0.9999 9.999e-05 0
		1 0 0
		0.99999 1e-05 0
		0.9999 9.999e-05 0
		1 0 0
		0.99999 1e-05 0
		0.9999 9.999e-05 0
		1 0 0
		0.99999 1e-05 0
		0.9999 9.999e-05 0
		1 0 0
		0.99999 1e-05 0
		0.9999 9.999e-05 0
		1 0 0
		0.99999 1e-05 0
		0.9999 9.999e-05 0
		1 0 0
		0.99999 1e-05 0
		0.9999 9.999e-05 0
		1 0 0
		0.99999 1e-05 0
		0.9999 9.999e-05 0
		0.5 0.4 0.1
		1e-05 0.499995 0.499995
		0 0.3 0.7
		1 0 0
		0.99999 1e-05 0
		0.9999 9.999e-05 0
		1 0 0
		0.99999 1e-05 0
		0.9999 9.999e-05 0
		1 0 0
		0.99999 1e-05 0
		0.9999 9.999e-05 0
		1 0 0
		0.99999 1e-05 0
		0.9999 9.999e-05 0
		1 0 0
		0.99999 1e-05 0
		0.9999 9.999e-05 0
		1 0 0
		0.99999 1e-05 0
		0.9999 9.999e-05 0
		1 0 0
		0.99999 1e-05 0
		0.9999 9.999e-05 0
		1 0 0
		0.99999 1e-05 0
		0.9999 9.999e-05 0
		1 0 0
		0.99999 1e-05 0
		0.9999 9.999e-05 0
		1 0 0
		0.99999 1e-05 0
		0.9999 9.999e-05 0
		1 0 0
		0.99999 1e-05 0
		0.9999 9.999e-05 0
		1 0 0
		0.99999 1e-05 0
		0.9999 9.999e-05 0
		1 0 0
		0.99999 1e-05 0
		0.9999 9.999e-05 0
		1 0 0
		0.99999 1e-05 0
		0.9999 9.999e-05 0
		1 0 0
		0.99999 1e-05 0
		0.9999 9.999e-05 0
		1 0 0
		0.99999 1e-05 0
		0.9999 9.999e-05 0
		1 0 0
		0.99999 1e-05 0
		0.9999 9.999e-05 0
		1 0 0
		0.99999 1e-05 0
		0.9999 9.999e-05 0
		1 0 0
		0.99999 1e-05 0
		0.9999 9.999e-05 0
		1 0 0
		0.99999 1e-05 0
		0.9999 9.999e-05 0
		1 0 0
		0.99999 1e-05 0
		0.9999 9.999e-05 0
		1 0 0
		0.99999 1e-05 0
		0.9999 9.999e-05 0
		1 0 0
		0.99999 1e-05 0
		0.9999 9.999e-05 0
		1 0 0
		0.99999 1e-05 0
		0.9999 9.999e-05 0
		1 0 0
		0.99999 1e-05 0
		0.9999 9.999e-05 0
		1 0 0
		0.99999 1e-05 0
		0.9999 9.999e-05 0
		1 0 0
		0.99999 1e-05 0
		0.9999 9.999e-05 0
		1 0 0
		0.99999 1e-05 0
		0.9999 9.999e-05 0
		1 0 0
		0.99999 1e-05 0
		0.9999 9.999e-05 0
		1 0 0
		0.99999 1e-05 0
		0.9999 9.999e-05 0
		1 0 0
		0.99999 1e-05 0
		0.9999 9.999e-05 0
		1 0 0
		0.99999 1e-05 0
		0.9999 9.999e-05 0
		1 0 0
		0.99999 1e-05 0
		0.9999 9.999e-05 0
		1 0 0
		0.99999 1e-05 0
		0.9999 9.999e-05 0
		1 0 0
		0.99999 1e-05 0
		0.9999 9.999e-05 0
		1 0 0
		0.99999 1e-05 0
		0.9999 9.999e-05 0
		1 0 0
		0.99999 1e-05 0
		0.9999 9.999e-05 0
		1 0 0
		0.99999 1e-05 0
		0.9999 9.999e-05 0
		1 0 0
		0.99999 1e-05 0
		0.9999 9.999e-05 0
		1 0 0
		0.99999 1e-05 0
		0.9999 9.999e-05 0
		1 0 0
		0.99999 1e-05 0
		0.9999 9.999e-05 0
		1 0 0
		0.99999 1e-05 0
		0.9999 9.999e-05 0
		1 0 0
		0.99999 1e-05 0
		0.9999 9.999e-05 0
		1 0 0
		0.99999 1e-05 0
		0.9999 9.999e-05 0
	</TABLE>
</DEFINITION>
<DEFINITION>
	<FOR>F14</FOR>
	<GIVEN>Fault</GIVEN>
	<TABLE>
		1 0
		1 0
		1 0
		0.9999 0.0001
		1 0
		1 0
		1 0
		1 0
		0.9999 0.0001
		0.6 0.4
		1 0
		1 0
		1 0
		1 0
		1 0
		0.9999 0.0001
		1 0
		1 0
		1 0
		1 0
		1 0
		1 0
		1 0
		1 0
		1 0
		1 0
		1 0
		0.99 0.01
		0.99 0.01
		0.99 0.01
		0.99 0.01
		0.99 0.01
		1 0
		1 0
		1 0
		1 0
		1 0
		1 0
		1 0
		1 0
		1 0
		1 0
		1 0
		1 0
		1 0
		1 0
		1 0
		1 0
		1 0
		1 0
		1 0
		1 0
		1 0
		1 0
		1 0
		1 0
		1 0
		1 0
		1 0
		1 0
		0.9999 0.0001
		1 0
		1 0
	</TABLE>
</DEFINITION>
<DEFINITION>
	<FOR>F15</FOR>
	<GIVEN>Fault</GIVEN>
	<TABLE>
		1 0
		1 0
		1 0
		1 0
		1 0
		1 0
		1 0
		1 0
		1 0
		1 0
		1 0
		1 0
		1 0
		1 0
		1 0
		1 0
		1 0
		1 0
		1 0
		1 0
		1 0
		1 0
		1 0
		1 0
		1 0
		1 0
		1 0
		1 0
		1 0
		1 0
		1 0
		1 0
		1 0
		1 0
		1 0
		1 0
		1 0
		1 0
		1 0
		1 0
		1 0
		1 0
		1 0
		1 0
		1 0
		1 0
		1 0
		1 0
		1 0
		1 0
		1 0
		1 0
		1 0
		1 0
		0.5 0.5
		1 0
		1 0
		1 0
		1 0
		1 0
		1 0
		1 0
		1 0
	</TABLE>
</DEFINITION>
<DEFINITION>
	<FOR>F16</FOR>
	<GIVEN>Fault</GIVEN>
	<GIVEN>F15</GIVEN>
	<TABLE>
		0.5999 0.4 0.0001
		0.333333 0.333333 0.333333
		0.2 0.75 0.05
		0.333333 0.333333 0.333333
		0.5999 0.4 0.0001
		0.333333 0.333333 0.333333
		0.05 0.9 0.05
		0.333333 0.333333 0.333333
		0.5999 0.4 0.0001
		0.333333 0.333333 0.333333
		0.5999 0.4 0.0001
		0.333333 0.333333 0.333333
		0.5999 0.4 0.0001
		0.333333 0.333333 0.333333
		0.5999 0.4 0.0001
		0.333333 0.333333 0.333333
		0.05 0.9 0.05
		0.333333 0.333333 0.333333
		0.01 0.2 0.79
		0.333333 0.333333 0.333333
		0.15 0.83 0.02
		0.333333 0.333333 0.333333
		0.5999 0.4 0.0001
		0.333333 0.333333 0.333333
		0.5999 0.4 0.0001
		0.333333 0.333333 0.333333
		0.5999 0.4 0.0001
		0.333333 0.333333 0.333333
		0.5999 0.4 0.0001
		0.333333 0.333333 0.333333
		0.05 0.9 0.05
		0.333333 0.333333 0.333333
		0.5999 0.4 0.0001
		0.333333 0.333333 0.333333
		0.5999 0.4 0.0001
		0.333333 0.333333 0.333333
		0.5999 0.4 0.0001
		0.333333 0.333333 0.333333
		0.5999 0.4 0.0001
		0.333333 0.333333 0.333333
		0.15 0.83 0.02
		0.333333 0.333333 0.333333
		0.5999 0.4 0.0001
		0.333333 0.333333 0.333333
		0.5999 0.4 0.0001
		0.333333 0.333333 0.333333
		0.15 0.83 0.02
		0.333333 0.333333 0.333333
		0.5999 0.4 0.0001
		0.333333 0.333333 0.333333
		0.5999 0.4 0.0001
		0.333333 0.333333 0.333333
		0.5999 0.4 0.0001
		0.333333 0.333333 0.333333
		0.1 0.75 0.15
		0.333333 0.333333 0.333333
		0.1 0.75 0.15
		0.333333 0.333333 0.333333
		0.1 0.75 0.15
		0.333333 0.333333 0.333333
		0.1 0.75 0.15
		0.333333 0.333333 0.333333
		0.1 0.75 0.15
		0.333333 0.333333 0.333333
		0.5999 0.4 0.0001
		0.333333 0.333333 0.333333
		0.5999 0.4 0.0001
		0.333333 0.333333 0.333333
		0.5999 0.4 0.0001
		0.333333 0.333333 0.333333
		0.5999 0.4 0.0001
		0.333333 0.333333 0.333333
		0.5999 0.4 0.0001
		0.333333 0.333333 0.333333
		0.5999 0.4 0.0001
		0.333333 0.333333 0.333333
		0.5999 0.4 0.0001
		0.333333 0.333333 0.333333
		0.5999 0.4 0.0001
		0.333333 0.333333 0.333333
		0.5999 0.4 0.0001
		0.333333 0.333333 0.333333
		0.5999 0.4 0.0001
		0.333333 0.333333 0.333333
		0.5999 0.4 0.0001
		0.333333 0.333333 0.333333
		0.5999 0.4 0.0001
		0.333333 0.333333 0.333333
		0.5999 0.4 0.0001
		0.333333 0.333333 0.333333
		0.35 0.63 0.02
		0.333333 0.333333 0.333333
		0.2 0.75 0.05
		0.333333 0.333333 0.333333
		0.5999 0.4 0.0001
		0.333333 0.333333 0.333333
		0.5999 0.4 0.0001
		0.333333 0.333333 0.333333
		0.5999 0.4 0.0001
		0.333333 0.333333 0.333333
		0.5999 0.4 0.0001
		0.333333 0.333333 0.333333
		0.5999 0.4 0.0001
		0.333333 0.333333 0.333333
		0.5999 0.4 0.0001
		0.333333 0.333333 0.333333
		0.5999 0.4 0.0001
		0.333333 0.333333 0.333333
		0.949905 0.049995 9.999e-05
		0.01 0.89 0.1
		0.5999 0.4 0.0001
		0.333333 0.333333 0.333333
		0.5999 0.4 0.0001
		0.333333 0.333333 0.333333
		0.5999 0.4 0.0001
		0.333333 0.333333 0.333333
		0.5999 0.4 0.0001
		0.333333 0.333333 0.333333
		0.5999 0.4 0.0001
		0.333333 0.333333 0.333333
		0.05 0.9 0.05
		0.333333 0.333333 0.333333
		0.5999 0.4 0.0001
		0.333333 0.333333 0.333333
		0.35 0.63 0.02
		0.333333 0.333333 0.333333
	</TABLE>
</DEFINITION>
<DEFINITION>
	<FOR>F17</FOR>
	<GIVEN>Fault</GIVEN>
	<TABLE>
		0.65 0.34 0.01
		0.7 0.28 0.02
		0.98 0.02 0
		0.05 0.85 0.1
		0.85 0.14 0.01
		0.98 0.02 0
		0.98 0.02 0
		0.98 0.02 0
		0 0.7 0.3
		0.98 0.02 0
		0.05 0.85 0.1
		0.05 0.9 0.05
		0.00990099 0.792079 0.19802
		0.98 0.02 0
		0.89 0.1 0.01
		0.72 0.25 0.03
		0.98 0.02 0
		0 0.02 0.98
		0.98 0.02 0
		0.98 0.02 0
		0 0.7 0.3
		0 0.6 0.4
		0.05 0.9 0.05
		0.05 0.85 0.1
		0.00990099 0.792079 0.19802
		0.02 0.6 0.38
		0.02 0.6 0.38
		0.95 0.049 0.001
		0.95 0.049 0.001
		0.95 0.049 0.001
		0.2 0.3 0.5
		0.3 0.6 0.1
		0.98 0.02 0
		0.98 0.02 0
		0.98 0.02 0
		0.98 0.02 0
		0.98 0.02 0
		0.98 0.02 0
		0.98 0.02 0
		0.98 0.02 0
		0.98 0.02 0
		0.98 0.02 0
		0.98 0.02 0
		0.98 0.02 0
		0.98 0.02 0
		0.7 0.28 0.02
		0.89 0.1 0.01
		0.98 0.02 0
		0.98 0.02 0
		0.98 0.02 0
		0.98 0.02 0
		0.98 0.02 0
		0.98 0.02 0
		0.85 0.14 0.01
		0.98 0.02 0
		0.98 0.02 0
		0.98 0.02 0
		0.98 0.02 0
		0.98 0.02 0
		0.98 0.02 0
		0.3 0.6 0.1
		0.65 0.34 0.01
		0.98 0.02 0
	</TABLE>
</DEFINITION>
<DEFINITION>
	<FOR>F18</FOR>
	<GIVEN>Fault</GIVEN>
	<GIVEN>F97</GIVEN>
	<GIVEN>F17</GIVEN>
	<TABLE>
		1 0 0 0
		1 0 0 0
		1 0 0 0
		1 0 0 0
		0 0.999 0.001 0
		0 0.998 0.002 0
		1 0 0 0
		1 0 0 0
		1 0 0 0
		1 0 0 0
		0 0.999 0.001 0
		0 0.998 0.002 0
		1 0 0 0
		1 0 0 0
		1 0 0 0
		1 0 0 0
		0 0.999 0.001 0
		0.25 0.25 0.25 0.25
		1 0 0 0
		1 0 0 0
		1 0 0 0
		1 0 0 0
		0 0.99498 0.00502008 0
		0 0.991 0.009 0
		1 0 0 0
		1 0 0 0
		1 0 0 0
		1 0 0 0
		0 0.999 0.001 0
		0 0.998 0.002 0
		1 0 0 0
		1 0 0 0
		1 0 0 0
		1 0 0 0
		0 0.999 0.001 0
		0.25 0.25 0.25 0.25
		1 0 0 0
		1 0 0 0
		1 0 0 0
		1 0 0 0
		0 0.999 0.001 0
		0.25 0.25 0.25 0.25
		1 0 0 0
		1 0 0 0
		1 0 0 0
		1 0 0 0
		0 0.999 0.001 0
		0.25 0.25 0.25 0.25
		1 0 0 0
		1 0 0 0
		1 0 0 0
		1 0 0 0
		0 0.899101 0.0999001 0.000999
		0 0.845771 0.149254 0.00497512
		1 0 0 0
		1 0 0 0
		1 0 0 0
		1 0 0 0
		0 0.999 0.001 0
		0.25 0.25 0.25 0.25
		1 0 0 0
		1 0 0 0
		1 0 0 0
		1 0 0 0
		0 0.99498 0.00502008 0
		0 0.991 0.009 0
		1 0 0 0
		1 0 0 0
		1 0 0 0
		1 0 0 0
		0 0.999 0.001 0
		0 0.998 0.002 0
		1 0 0 0
		1 0 0 0
		1 0 0 0
		1 0 0 0
		0 0.999 0.001 0
		0 0.998 0.002 0
		1 0 0 0
		1 0 0 0
		1 0 0 0
		1 0 0 0
		0 0.999 0.001 0
		0.25 0.25 0.25 0.25
		1 0 0 0
		1 0 0 0
		1 0 0 0
		1 0 0 0
		0 0.99498 0.00502008 0
		0 0.991 0.009 0
		1 0 0 0
		1 0 0 0
		1 0 0 0
		1 0 0 0
		0 0.99498 0.00502008 0
		0 0.991 0.009 0
		1 0 0 0
		1 0 0 0
		1 0 0 0
		1 0 0 0
		0 0.999 0.001 0
		0.25 0.25 0.25 0.25
		1 0 0 0
		1 0 0 0
		1 0 0 0
		1 0 0 0
		0 0.999 0.001 0
		0.25 0.25 0.25 0.25
		1 0 0 0
		1 0 0 0
		1 0 0 0
		1 0 0 0
		0 0.999 0.001 0
		0.25 0.25 0.25 0.25
		1 0 0 0
		1 0 0 0
		1 0 0 0
		1 0 0 0
		0 0.999 0.001 0
		0.25 0.25 0.25 0.25
		1 0 0 0
		1 0 0 0
		1 0 0 0
		1 0 0 0
		0 0.899101 0.0999001 0.000999
		0 0.845771 0.149254 0.00497512
		1 0 0 0
		1 0 0 0
		1 0 0 0
		1 0 0 0
		0 0 0.8 0.2
		0 0 0.4 0.6
		1 0 0 0
		1 0 0 0
		1 0 0 0
		1 0 0 0
		0 0.999 0.001 0
		0 0.998 0.002 0
		1 0 0 0
		1 0 0 0
		1 0 0 0
		1 0 0 0
		0 0.99498 0.00502008 0
		0 0.991 0.009 0
		1 0 0 0
		1 0 0 0
		1 0 0 0
		1 0 0 0
		0 0.999 0.001 0
		0 0.998 0.002 0
		1 0 0 0
		1 0 0 0
		1 0 0 0
		1 0 0 0
		0 0.99498 0.00502008 0
		0 0.991 0.009 0
		1 0 0 0
		1 0 0 0
		1 0 0 0
		1 0 0 0
		0 0.99498 0.00502008 0
		0 0.991 0.009 0
		1 0 0 0
		1 0 0 0
		1 0 0 0
		1 0 0 0
		0 0.999 0.001 0
		0 0.998 0.002 0
		1 0 0 0
		1 0 0 0
		1 0 0 0
		1 0 0 0
		0 0.999 0.001 0
		0 0.998 0.002 0
		1 0 0 0
		1 0 0 0
		1 0 0 0
		1 0 0 0
		0 0.999 0.001 0
		0 0.998 0.002 0
		1 0 0 0
		1 0 0 0
		1 0 0 0
		1 0 0 0
		0 0.99 0.01 0
		0 0.98 0.02 0
		1 0 0 0
		1 0 0 0
		1 0 0 0
		1 0 0 0
		0 0.999 0.001 0
		0 0.998 0.002 0
		1 0 0 0
		1 0 0 0
		1 0 0 0
		1 0 0 0
		0 0.999 0.001 0
		0.25 0.25 0.25 0.25
		1 0 0 0
		1 0 0 0
		1 0 0 0
		1 0 0 0
		0 0.999 0.001 0
		0.25 0.25 0.25 0.25
		1 0 0 0
		1 0 0 0
		1 0 0 0
		1 0 0 0
		0 0.999 0.001 0
		0.25 0.25 0.25 0.25
		1 0 0 0
		1 0 0 0
		1 0 0 0
		1 0 0 0
		0 0.999 0.001 0
		0.25 0.25 0.25 0.25
		1 0 0 0
		1 0 0 0
		1 0 0 0
		1 0 0 0
		0 0.999 0.001 0
		0.25 0.25 0.25 0.25
		1 0 0 0
		1 0 0 0
		1 0 0 0
		1 0 0 0
		0 0.999 0.001 0
		0.25 0.25 0.25 0.25
		1 0 0 0
		1 0 0 0
		1 0 0 0
		1 0 0 0
		0 0.999 0.001 0
		0.25 0.25 0.25 0.25
		1 0 0 0
		1 0 0 0
		1 0 0 0
		1 0 0 0
		0 0.999 0.001 0
		0.25 0.25 0.25 0.25
		1 0 0 0
		1 0 0 0
		1 0 0 0
		1 0 0 0
		0 0.999 0.001 0
		0.25 0.25 0.25 0.25
		1 0 0 0
		1 0 0 0
		1 0 0 0
		1 0 0 0
		0 0.999 0.001 0
		0.25 0.25 0.25 0.25
		1 0 0 0
		1 0 0 0
		1 0 0 0
		1 0 0 0
		0 0.999 0.001 0
		0.25 0.25 0.25 0.25
		1 0 0 0
		1 0 0 0
		1 0 0 0
		1 0 0 0
		0 0.999 0.001 0
		0.25 0.25 0.25 0.25
		1 0 0 0
		1 0 0 0
		1 0 0 0
		1 0 0 0
		0 0.999 0.001 0
		0.25 0.25 0.25 0.25
		1 0 0 0
		1 0 0 0
		1 0 0 0
		1 0 0 0
		0 0.999 0.001 0
		0 0.998 0.002 0
		1 0 0 0
		1 0 0 0
		1 0 0 0
		1 0 0 0
		0 0.999 0.001 0
		0 0.998 0.002 0
		1 0 0 0
		1 0 0 0
		1 0 0 0
		1 0 0 0
		0 0.999 0.001 0
		0.25 0.25 0.25 0.25
		1 0 0 0
		1 0 0 0
		1 0 0 0
		1 0 0 0
		0 0.999 0.001 0
		0.25 0.25 0.25 0.25
		1 0 0 0
		1 0 0 0
		1 0 0 0
		1 0 0 0
		0 0.999 0.001 0
		0.25 0.25 0.25 0.25
		1 0 0 0
		1 0 0 0
		1 0 0 0
		1 0 0 0
		0 0.999 0.001 0
		0.25 0.25 0.25 0.25
		1 0 0 0
		1 0 0 0
		1 0 0 0
		1 0 0 0
		0 0.999 0.001 0
		0.25 0.25 0.25 0.25
		1 0 0 0
		1 0 0 0
		1 0 0 0
		1 0 0 0
		0 0.999 0.001 0
		0.25 0.25 0.25 0.25
		1 0 0 0
		1 0 0 0
		1 0 0 0
		1 0 0 0
		0 0.999 0.001 0
		0 0.998 0.002 0
		1 0 0 0
		1 0 0 0
		1 0 0 0
		1 0 0 0
		0 0.999 0.001 0
		0.25 0.25 0.25 0.25
		1 0 0 0
		1 0 0 0
		1 0 0 0
		1 0 0 0
		0 0.999 0.001 0
		0.25 0.25 0.25 0.25
		1 0 0 0
		1 0 0 0
		1 0 0 0
		1 0 0 0
		0 0.999 0.001 0
		0.25 0.25 0.25 0.25
		1 0 0 0
		1 0 0 0
		1 0 0 0
		1 0 0 0
		0 0.999 0.001 0
		0.25 0.25 0.25 0.25
		1 0 0 0
		1 0 0 0
		1 0 0 0
		1 0 0 0
		0 0.999 0.001 0
		0.25 0.25 0.25 0.25
		1 0 0 0
		1 0 0 0
		1 0 0 0
		1 0 0 0
		0 0.999 0.001 0
		0.25 0.25 0.25 0.25
		1 0 0 0
		1 0 0 0
		1 0 0 0
		1 0 0 0
		0 0.999 0.001 0
		0 0.998 0.002 0
		1 0 0 0
		1 0 0 0
		1 0 0 0
		1 0 0 0
		0 0.999 0.001 0
		0 0.998 0.002 0
		1 0 0 0
		1 0 0 0
		1 0 0 0
		1 0 0 0
		0 0.999 0.001 0
		0.25 0.25 0.25 0.25
	</TABLE>
</DEFINITION>
<DEFINITION>
	<FOR>F19</FOR>
	<GIVEN>Fault</GIVEN>
	<TABLE>
		0.375 0.59375 0.03125
		0.02 0.85 0.13
		0.99 0.01 0
		0.02 0.93 0.05
		0.0909091 0.863636 0.0454546
		0.99 0.01 0
		0.99 0.01 0
		0.99 0.01 0
		0.02 0.96 0.02
		0.99 0.01 0
		0.899101 0.0999001 0.000999
		0.01 0.89 0.1
		0.01 0.8 0.19
		0.99 0.01 0
		0.047619 0.904762 0.047619
		0.047619 0.904762 0.047619
		0.99 0.01 0
		0.99 0.01 0
		0.99 0.01 0
		0.99 0.01 0
		0.02 0.96 0.02
		0.899101 0.0999001 0.000999
		0.01 0.89 0.1
		0.899101 0.0999001 0.000999
		0.01 0.8 0.19
		0.02 0.7 0.28
		0.02 0.7 0.28
		0.799201 0.1998 0.000999
		0.799201 0.1998 0.000999
		0.799201 0.1998 0.000999
		0.1 0.89 0.01
		0.2 0.79 0.01
		0.99 0.01 0
		0.99 0.01 0
		0.99 0.01 0
		0.99 0.01 0
		0.99 0.01 0
		0.99 0.01 0
		0.99 0.01 0
		0.99 0.01 0
		0.99 0.01 0
		0.99 0.01 0
		0.99 0.01 0
		0.99 0.01 0
		0.99 0.01 0
		0.02 0.8 0.18
		0.02 0.85 0.13
		0.99 0.01 0
		0.99 0.01 0
		0.99 0.01 0
		0.99 0.01 0
		0.99 0.01 0
		0.99 0.01 0
		0.0909091 0.863636 0.0454546
		0.99 0.01 0
		0.99 0.01 0
		0.99 0.01 0
		0.99 0.01 0
		0.99 0.01 0
		0.99 0.01 0
		0.2 0.79 0.01
		0.375 0.59375 0.03125
		0.02 0.8 0.18
	</TABLE>
</DEFINITION>
<DEFINITION>
	<FOR>F41</FOR>
	<GIVEN>Fault</GIVEN>
	<TABLE>
		0.99 0.01
		0 1
		0 1
		0.02 0.98
		0.99 0.01
		0.99 0.01
		0.99 0.01
		0.55 0.45
		0.3 0.7
		0.99 0.01
		0 1
		0.99 0.01
		0.99 0.01
		0.99 0.01
		0.1 0.9
		0.02 0.98
		0.99 0.01
		0.99 0.01
		0.99 0.01
		0.99 0.01
		0.99 0.01
		0.99 0.01
		0.99 0.01
		0 1
		0.99 0.01
		0.3 0.7
		0.3 0.7
		0.3 0.7
		0.3 0.7
		0.3 0.7
		0.3 0.7
		0.3 0.7
		0.3 0.7
		0.3 0.7
		0.12 0.88
		0.1 0.9
		0.05 0.95
		0.8 0.2
		0.05 0.95
		0.9 0.1
		0.99 0.01
		0.3 0.7
		0 1
		0 1
		0 1
		0 1
		0 1
		0 1
		0.999 0.001
		0.8 0.2
		0 1
		0 1
		0 1
